<?xml version="1.0"?>
<opencv_storage>
<opencv_ml_svm>
  <format>3</format>
  <svmType>C_SVC</svmType>
  <kernel>
    <type>RBF</type>
    <gamma>5.0624999999999998e-01</gamma></kernel>
  <C>1.2500000000000000e+01</C>
  <term_criteria><epsilon>1.1920928955078125e-07</epsilon>
    <iterations>1000</iterations></term_criteria>
  <var_count>693</var_count>
  <class_count>6</class_count>
  <class_labels type_id="opencv-matrix">
    <rows>6</rows>
    <cols>1</cols>
    <dt>i</dt>
    <data>
      0 1 2 3 4 5</data></class_labels>
  <sv_total>300</sv_total>
  <support_vectors>
    <_>
      6.24999986e-04 0. 0. 0. 0. 0. 0. 0. 0. 0. 0. 0. 0. 0. 0. 0. 0. 0.
      0. 0. 0. 0. 0. 0. 0. 0. 0. 0. 0. 0. 0. 0. 0. 0. 0. 0. 0. 0. 0. 0.
      0. 0. 0. 0. 0. 0. 0. 0. 0. 0. 0. 0. 0. 0. 0. 0. 0. 0. 0. 0. 0. 0.
      0. 0. 0. 1.09375000e-03 0. 0. 4.68749990e-04 3.12499993e-04
      1.56249997e-04 7.81249953e-04 9.37499979e-04 6.24999986e-04
      6.24999986e-04 1.87499996e-03 3.43749998e-03 1.40624994e-03
      3.12499993e-04 9.37499979e-04 1.56249997e-04 3.12499981e-03
      7.81250000e-03 4.53124987e-03 2.34374986e-03 6.40624994e-03
      1.71874999e-03 3.43749998e-03 4.84375004e-03 0. 1.29687497e-02
      1.56249997e-04 3.12499981e-03 4.06249985e-03 7.03124981e-03
      4.99999989e-03 1.73437502e-02 1.18749999e-02 1.54687492e-02
      2.73437500e-02 1.32812494e-02 1.62499994e-02 1.67187490e-02
      1.29687497e-02 1.21874996e-02 1.20312497e-02 1.07812500e-02
      1.75000001e-02 2.03124993e-02 2.48437487e-02 7.34374970e-02
      1.38125002e-01 1.29843742e-01 1.15937494e-01 9.82812494e-02
      7.01562464e-02 4.25000004e-02 1.21874996e-02 6.56249980e-03
      4.68749990e-04 2.65625003e-03 0. 0. 0. 0. 0. 0. 0. 0. 0. 0. 0. 0.
      0. 0. 0. 0. 0. 0. 0. 0. 0. 0. 0. 0. 0. 0. 0. 0. 0. 0. 0. 0. 0. 0.
      0. 0. 0. 0. 0. 0. 0. 0. 0. 0. 6.24999986e-04 0. 0. 0. 0. 0. 0. 0.
      0. 0. 0. 0. 0. 0. 0. 0. 6.24999986e-04 0. 3.12499993e-04 0. 0.
      1.56249991e-03 0. 9.37499979e-04 6.24999986e-04 0. 1.40624994e-03
      7.81249953e-04 1.56249991e-03 2.18750001e-03 4.68749990e-04
      4.84375004e-03 1.87499996e-03 3.43749998e-03 1.56249991e-03
      2.96874996e-03 2.03124993e-03 3.28124990e-03 1.23437494e-02
      9.06249974e-03 8.90624989e-03 3.90625000e-03 8.59375019e-03
      9.37499944e-03 9.99999978e-03 7.81250000e-03 7.03124981e-03
      8.12499970e-03 3.12499981e-03 8.28124955e-03 3.43749998e-03
      1.01562496e-02 5.62499976e-03 3.74999992e-03 6.40624994e-03
      2.03124993e-03 6.56249980e-03 4.21874970e-03 3.43749998e-03
      7.81250000e-03 4.53124987e-03 5.62499976e-03 4.37500002e-03
      5.93749993e-03 3.74999992e-03 4.37500002e-03 5.31250006e-03
      5.15624974e-03 4.06249985e-03 4.21874970e-03 3.12499981e-03
      5.62499976e-03 4.21874970e-03 3.74999992e-03 3.12499981e-03
      3.74999992e-03 2.03124993e-03 6.71874965e-03 3.28124990e-03
      2.81249988e-03 3.43749998e-03 4.53124987e-03 4.68749972e-03
      4.99999989e-03 4.68749972e-03 4.84375004e-03 2.34374986e-03
      2.96874996e-03 3.28124990e-03 3.12499981e-03 1.87499996e-03
      2.18750001e-03 2.18750001e-03 1.71874999e-03 2.49999994e-03
      2.34374986e-03 3.74999992e-03 2.03124993e-03 2.18750001e-03
      3.43749998e-03 3.43749998e-03 2.03124993e-03 1.87499996e-03
      2.18750001e-03 3.28124990e-03 3.59374983e-03 2.18750001e-03
      2.03124993e-03 3.12499981e-03 2.81249988e-03 2.81249988e-03
      2.81249988e-03 2.49999994e-03 2.18750001e-03 3.59374983e-03
      2.03124993e-03 2.81249988e-03 2.49999994e-03 4.53124987e-03
      4.84375004e-03 5.93749993e-03 4.99999989e-03 3.90625000e-03
      3.74999992e-03 5.31250006e-03 5.46874991e-03 4.53124987e-03
      4.84375004e-03 6.40624994e-03 5.93749993e-03 4.84375004e-03
      6.24999963e-03 7.18749966e-03 7.18749966e-03 7.96874985e-03
      8.75000004e-03 9.68750007e-03 1.04687493e-02 1.03124995e-02
      1.06250001e-02 1.28124999e-02 1.04687493e-02 8.43749940e-03
      1.14062494e-02 1.35937501e-02 8.59375019e-03 8.28124955e-03
      1.04687493e-02 1.04687493e-02 1.12499995e-02 1.21874996e-02
      9.68750007e-03 1.57812499e-02 1.84374992e-02 1.76562499e-02
      1.48437498e-02 1.56250000e-02 1.64062493e-02 1.24999993e-02
      1.23437494e-02 1.35937501e-02 1.71875004e-02 1.15625001e-02
      1.57812499e-02 1.62499994e-02 1.64062493e-02 1.31249996e-02
      1.10937497e-02 1.23437494e-02 1.28124999e-02 1.18749999e-02
      1.21874996e-02 1.15625001e-02 1.21874996e-02 1.29687497e-02
      8.59375019e-03 4.06249985e-03 4.21874970e-03 3.74999992e-03
      1.87499996e-03 2.49999994e-03 1.40624994e-03 4.68749990e-04 0. 0.
      0. 0. 0. 0. 0. 0. 0. 0. 0. 0. 0. 0. 0. 0. 0. 0. 0. 0. 0. 0. 0. 0.
      0. 0. 0. 0. 0. 0. 0. 0. 0. 0. 0. 0. 0. 0. 0. 0. 0. 0. 0. 0. 0. 0.
      0. 0. 0. 0. 0. 0. 0. 0. 0. 0. 0. 0. 0. 0. 0. 0. 0. 0. 0. 0. 0. 0.
      0. 0. 0. 0. 0. 0. 0. 0. 0. 0. 0. 0. 0. 0. 0. 0. 0. 0. 0. 0. 0. 0.
      0. 0. 0. 0. 0. 0. 0. 0. 0. 0. 0. 0. 0. 0. 0. 0. 0. 0. 0. 0. 0. 0.
      0. 0. 0. 0. 0. 0. 0. 0. 0. 0. 0. 0. 0. 0. 0. 0. 0. 0. 0. 0. 0. 0.
      0. 0. 0. 0. 0. 0. 0. 0. 0. 0. 0. 0. 0. 0. 0. 0. 0. 0. 0. 0. 0. 0.
      0. 0. 0. 0. 0. 0. 0. 0. 0. 0. 0. 0. 0. 0. 0. 0. 0. 0. 0. 0. 0. 0.
      0. 3.12499993e-04 4.68749990e-04 1.56249991e-03 7.81249953e-04
      7.81249953e-04 1.24999997e-03 2.34374986e-03 2.81249988e-03
      1.87499996e-03 2.81249988e-03 2.81249988e-03 3.43749998e-03
      2.96874996e-03 3.59374983e-03 4.37500002e-03 4.99999989e-03
      2.96874996e-03 2.49999994e-03 3.28124990e-03 2.65625003e-03
      2.81249988e-03 3.12499981e-03 3.43749998e-03 6.40624994e-03
      7.96874985e-03 1.07812500e-02 9.53125022e-03 6.87499996e-03
      5.93749993e-03 9.68750007e-03 9.68750007e-03 8.28124955e-03
      5.62499976e-03 6.09374978e-03 9.06249974e-03 8.43749940e-03
      7.03124981e-03 3.90625000e-03 8.90624989e-03 8.59375019e-03
      7.81250000e-03 8.43749940e-03 8.28124955e-03 8.75000004e-03
      1.12499995e-02 1.15625001e-02 1.40624996e-02 1.59374997e-02
      1.70312505e-02 2.04687491e-02 2.01562494e-02 2.28124987e-02
      2.14062501e-02 1.89062487e-02 1.85937490e-02 1.42187495e-02
      1.35937501e-02 1.71875004e-02 1.51562495e-02 1.54687492e-02
      1.32812494e-02 1.60937496e-02 1.42187495e-02 1.57812499e-02
      1.39062498e-02 1.32812494e-02 1.53124994e-02 1.76562499e-02
      1.45312501e-02 1.57812499e-02 1.60937496e-02 1.60937496e-02
      1.59374997e-02 1.87499989e-02 2.01562494e-02 2.07812488e-02
      1.90625004e-02 1.90625004e-02 1.96874999e-02 2.43749991e-02
      2.10937504e-02 2.04687491e-02 1.79687496e-02 1.92187503e-02
      1.89062487e-02 1.31249996e-02 1.29687497e-02 1.06250001e-02
      8.43749940e-03 6.09374978e-03 4.21874970e-03 2.65625003e-03
      2.18750001e-03 2.49999994e-03 1.40624994e-03 1.71874999e-03
      1.09375000e-03 7.81249953e-04 1.09375000e-03 3.12499993e-04
      3.12499993e-04 6.24999986e-04 4.68749990e-04 0. 0. 0. 0. 0. 0. 0.
      0. 0. 0. 0. 0. 0. 0. 0. 0. 0. 0. 0. 0. 0. 0. 0. 0. 0. 0. 0. 0. 0.
      0. 0. 0. 0. 0. 0. 0. 0. 0. 0. 0. 0. 0. 0. 0. 0. 0. 0. 0. 0. 0. 0.
      0. 0. 0. 0. 0. 0. 0. 0. 0. 0. 0. 0.</_>
    <_>
      1.87499989e-02 2.67187487e-02 1.85937490e-02 3.62499990e-02
      3.82812507e-02 4.12499979e-02 2.56249998e-02 1.06250001e-02
      1.21874996e-02 1.32812494e-02 1.07812500e-02 1.37499999e-02
      1.32812494e-02 1.23437494e-02 1.34374993e-02 1.76562499e-02
      1.21874996e-02 1.51562495e-02 1.89062487e-02 1.87499989e-02
      1.65624991e-02 3.15624997e-02 2.09374987e-02 1.48437498e-02
      2.68749986e-02 3.14062499e-02 2.37499997e-02 1.99999996e-02
      1.67187490e-02 1.23437494e-02 2.10937504e-02 1.40624996e-02
      1.46875000e-02 2.26562489e-02 8.68749991e-02 4.15624976e-02
      1.92187503e-02 1.53124994e-02 1.78124998e-02 9.37499979e-04
      4.68749990e-04 6.24999986e-04 0. 0. 0. 0. 0. 0. 0. 0. 0. 0. 0. 0.
      0. 0. 0. 0. 0. 0. 0. 0. 0. 0. 0. 0. 0. 0. 0. 0. 0. 0. 0. 0. 0. 0.
      0. 0. 0. 0. 0. 0. 0. 0. 0. 0. 0. 0. 0. 0. 0. 0. 0. 0. 0. 0. 0. 0.
      0. 0. 0. 0. 0. 0. 0. 0. 0. 0. 0. 0. 0. 0. 0. 0. 0. 0. 0. 0. 0. 0.
      0. 0. 0. 0. 0. 0. 0. 0. 0. 0. 0. 0. 0. 0. 0. 0. 0. 0. 0. 0. 0. 0.
      0. 0. 0. 0. 0. 0. 0. 0. 0. 0. 0. 0. 0. 0. 0. 0. 0. 0. 0. 0. 0.
      9.37499979e-04 1.40624994e-03 2.34374986e-03 2.03124993e-03
      3.74999992e-03 3.90625000e-03 7.49999983e-03 5.78125007e-03
      7.18749966e-03 7.81250000e-03 7.34374998e-03 1.01562496e-02
      1.23437494e-02 1.37499999e-02 1.68749988e-02 1.78124998e-02
      2.09374987e-02 0. 0. 0. 0. 0. 0. 0. 0. 0. 0. 0. 0. 0. 0.
      1.56249997e-04 2.03124993e-03 9.37499979e-04 9.37499979e-04
      9.37499979e-04 3.12499993e-04 2.34374986e-03 4.68749990e-04
      1.09375000e-03 9.37499979e-04 9.37499979e-04 7.81249953e-04
      7.81249953e-04 9.37499979e-04 1.71874999e-03 9.37499979e-04
      3.12499981e-03 1.87499996e-03 5.46874991e-03 2.49999994e-03
      4.53124987e-03 2.49999994e-03 2.34374986e-03 2.03124993e-03
      2.65625003e-03 3.12499981e-03 3.74999992e-03 3.59374983e-03
      5.15624974e-03 4.37500002e-03 8.12499970e-03 9.37499944e-03
      5.46874991e-03 9.21874959e-03 6.09374978e-03 8.59375019e-03
      1.01562496e-02 1.18749999e-02 1.04687493e-02 1.10937497e-02
      2.28124987e-02 1.67187490e-02 3.68749984e-02 2.65624989e-02
      2.07812488e-02 1.76562499e-02 2.67187487e-02 3.07812486e-02
      2.14062501e-02 1.60937496e-02 1.26562500e-02 1.29687497e-02
      1.32812494e-02 9.21874959e-03 7.18749966e-03 6.56249980e-03
      1.17187500e-02 9.21874959e-03 8.43749940e-03 1.01562496e-02
      7.03124981e-03 7.18749966e-03 7.34374998e-03 7.18749966e-03
      6.40624994e-03 8.75000004e-03 8.59375019e-03 1.04687493e-02
      1.15625001e-02 9.84374993e-03 1.48437498e-02 9.84374993e-03
      6.24999963e-03 9.53125022e-03 9.53125022e-03 9.84374993e-03
      1.71875004e-02 1.39062498e-02 1.60937496e-02 1.28124999e-02
      9.84374993e-03 9.06249974e-03 9.37499944e-03 1.06250001e-02
      8.59375019e-03 6.40624994e-03 7.03124981e-03 6.71874965e-03
      7.18749966e-03 3.90625000e-03 4.37500002e-03 5.15624974e-03
      4.84375004e-03 4.68749972e-03 5.15624974e-03 3.74999992e-03
      2.34374986e-03 2.96874996e-03 4.99999989e-03 5.31250006e-03
      2.49999994e-03 3.59374983e-03 3.12499981e-03 2.96874996e-03
      2.49999994e-03 3.59374983e-03 4.06249985e-03 3.43749998e-03
      2.03124993e-03 1.40624994e-03 2.03124993e-03 3.28124990e-03
      4.68749990e-04 3.12499981e-03 1.40624994e-03 1.09375000e-03
      4.68749972e-03 6.24999986e-04 1.56249991e-03 2.18750001e-03
      2.96874996e-03 2.49999994e-03 1.09375000e-03 2.34374986e-03
      2.65625003e-03 1.09375000e-03 1.56249991e-03 2.96874996e-03
      9.37499979e-04 3.12499993e-04 1.56249991e-03 1.71874999e-03
      3.28124990e-03 2.18750001e-03 2.65625003e-03 2.96874996e-03
      9.37499979e-04 3.59374983e-03 1.09375000e-03 2.18750001e-03
      1.56249991e-03 7.81249953e-04 1.87499996e-03 6.24999986e-04
      7.81249953e-04 7.81249953e-04 7.81249953e-04 9.37499979e-04
      1.24999997e-03 2.96874996e-03 2.03124993e-03 1.71874999e-03
      1.40624994e-03 7.81249953e-04 1.71874999e-03 1.40624994e-03
      1.24999997e-03 1.24999997e-03 1.09375000e-03 1.24999997e-03
      1.09375000e-03 1.09375000e-03 1.71874999e-03 7.81249953e-04
      1.40624994e-03 1.56249991e-03 1.09375000e-03 3.12499993e-04
      1.71874999e-03 2.34374986e-03 1.09375000e-03 1.56249991e-03
      1.71874999e-03 1.09375000e-03 6.24999986e-04 1.71874999e-03
      1.40624994e-03 4.68749990e-04 1.40624994e-03 4.68749990e-04
      7.81249953e-04 9.37499979e-04 2.03124993e-03 7.81249953e-04
      1.24999997e-03 2.49999994e-03 9.37499979e-04 1.40624994e-03
      1.87499996e-03 1.56249991e-03 4.68749990e-04 2.49999994e-03
      2.65625003e-03 1.40624994e-03 1.24999997e-03 4.68749990e-04
      9.37499979e-04 1.09375000e-03 1.71874999e-03 1.40624994e-03
      9.37499979e-04 2.03124993e-03 1.09375000e-03 1.24999997e-03
      4.68749990e-04 1.40624994e-03 6.24999986e-04 0. 1.09375000e-03
      7.81249953e-04 3.12499993e-04 3.12499993e-04 1.09375000e-03
      3.12499993e-04 3.12499993e-04 0. 6.24999986e-04 0. 0. 0. 0. 0. 0.
      0. 0. 0. 0. 0. 0. 0. 0. 0. 0. 0. 0. 0. 0. 0. 0. 0. 0. 0. 0. 0. 0.
      0. 0. 0. 0. 0. 0. 0. 0. 0. 0. 0. 0. 0. 0. 0. 0. 0. 0. 0. 0. 0. 0.
      0. 0. 0. 0. 0. 0. 0. 0. 0. 0. 0. 0. 0. 0. 0. 0. 0. 0. 0. 0. 0. 0.
      0. 0. 0. 0. 0. 0. 0. 0. 0. 0. 0. 0. 0. 0. 0. 0. 0. 1.56249997e-04
      7.81249953e-04 7.81249953e-04 1.56249991e-03 2.18750001e-03
      3.43749998e-03 3.43749998e-03 4.99999989e-03 5.78125007e-03
      4.06249985e-03 9.53125022e-03 8.12499970e-03 1.10937497e-02
      1.01562496e-02 1.23437494e-02 1.24999993e-02 1.65624991e-02
      2.09374987e-02 2.15624999e-02 1.90625004e-02 1.73437502e-02
      1.75000001e-02 1.39062498e-02 1.62499994e-02 1.37499999e-02
      1.59374997e-02 1.73437502e-02 1.32812494e-02 1.70312505e-02
      1.65624991e-02 2.17187498e-02 1.40624996e-02 1.32812494e-02
      1.21874996e-02 1.29687497e-02 1.92187503e-02 1.40624996e-02
      1.56250000e-02 1.35937501e-02 1.62499994e-02 1.43749993e-02
      1.70312505e-02 1.64062493e-02 1.46875000e-02 1.46875000e-02
      1.42187495e-02 1.21874996e-02 1.39062498e-02 1.06250001e-02
      1.07812500e-02 9.84374993e-03 1.03124995e-02 1.31249996e-02
      1.14062494e-02 1.56250000e-02 1.14062494e-02 1.39062498e-02
      1.09374998e-02 1.35937501e-02 9.21874959e-03 7.96874985e-03
      6.24999963e-03 3.12499981e-03 4.68749972e-03 4.99999989e-03
      6.71874965e-03 5.93749993e-03 9.21874959e-03 1.42187495e-02
      2.64062490e-02 3.73437479e-02 5.95312491e-02 5.12499996e-02
      1.87499989e-02 3.90625000e-03 3.12499993e-04 1.56249997e-04 0. 0.
      0. 0. 0. 0. 0. 0. 0. 0. 0. 0. 0. 0. 0. 0. 0. 0. 0. 0. 0. 0. 0. 0.
      0. 0. 0. 0. 0. 0. 0. 0. 0. 0. 0. 0. 0. 0. 0. 0. 0. 0. 0. 0. 0. 0.
      0. 0. 0. 0. 0. 0. 0. 0. 0. 0. 0. 0. 0. 0. 0. 0. 0. 0. 0. 0. 0. 0.
      0. 0. 0. 0. 0. 0. 0. 0. 0. 0. 0. 0. 0. 0. 0. 0. 0. 0. 0. 0. 0. 0.
      0. 0. 0. 0. 0. 0. 0. 0. 0. 0. 0. 0. 0. 0. 0. 0. 0. 0. 0. 0. 0. 0.
      0. 0. 0. 0.</_>
    <_>
      0. 0. 0. 0. 0. 0. 0. 0. 0. 0. 0. 0. 0. 1.40624994e-03
      2.84374990e-02 2.18749996e-02 6.24999963e-03 6.56249980e-03
      3.59374983e-03 5.15624974e-03 9.53125022e-03 1.67187490e-02
      5.31249978e-02 1.69375002e-01 2.21562490e-01 2.16562495e-01
      6.82812482e-02 1.93750001e-02 1.81249995e-02 2.40624994e-02
      1.14062494e-02 1.68749988e-02 2.31250003e-02 1.68749988e-02
      1.03124995e-02 6.24999963e-03 5.31250006e-03 5.31250006e-03
      4.53124987e-03 2.03124993e-03 1.56249991e-03 2.49999994e-03
      2.49999994e-03 9.37499979e-04 3.12499993e-04 0. 1.56249997e-04 0.
      0. 0. 0. 0. 0. 0. 0. 0. 0. 0. 0. 0. 0. 0. 0. 0. 0. 0. 0. 0. 0. 0.
      0. 0. 0. 0. 0. 0. 0. 0. 0. 0. 0. 0. 0. 0. 0. 0. 0. 0. 0. 0. 0. 0.
      0. 0. 0. 0. 0. 0. 0. 0. 0. 0. 0. 0. 0. 0. 0. 0. 0. 0. 0. 0. 0. 0.
      0. 0. 0. 0. 0. 0. 0. 0. 0. 0. 0. 0. 0. 0. 0. 0. 0. 0. 0. 0. 0. 0.
      0. 0. 0. 0. 0. 0. 0. 0. 0. 0. 0. 0. 0. 0. 0. 0. 0. 0. 0. 0. 0. 0.
      0. 0. 0. 0. 0. 0. 0. 0. 0. 0. 0. 0. 0. 0. 0. 0. 0. 0. 0. 0. 0. 0.
      0. 0. 0. 0. 0. 0. 0. 0. 0. 0. 0. 0. 0. 0. 0. 0. 0. 0. 0. 0. 0. 0.
      0. 0. 0. 0. 0. 0. 0. 0. 0. 0. 0. 0. 0. 0. 0. 0. 0. 0. 0.
      1.56249997e-04 0. 0. 0. 0. 1.56249997e-04 0. 4.68749990e-04
      3.12499993e-04 9.37499979e-04 4.68749990e-04 1.09375000e-03
      1.40624994e-03 1.87499996e-03 2.96874996e-03 3.28124990e-03
      4.84375004e-03 2.96874996e-03 3.74999992e-03 4.99999989e-03
      5.46874991e-03 5.15624974e-03 5.15624974e-03 7.49999983e-03
      5.78125007e-03 6.09374978e-03 4.68749972e-03 5.46874991e-03
      4.99999989e-03 5.78125007e-03 5.93749993e-03 5.31250006e-03
      3.43749998e-03 4.53124987e-03 2.81249988e-03 4.99999989e-03
      4.53124987e-03 4.68749972e-03 3.90625000e-03 3.28124990e-03
      5.15624974e-03 4.99999989e-03 3.90625000e-03 4.37500002e-03
      5.62499976e-03 1.56249991e-03 2.49999994e-03 2.03124993e-03
      1.71874999e-03 2.49999994e-03 2.49999994e-03 2.34374986e-03
      1.24999997e-03 3.12499981e-03 2.81249988e-03 1.56249991e-03
      1.40624994e-03 1.56249991e-03 3.43749998e-03 2.03124993e-03
      2.49999994e-03 2.34374986e-03 2.81249988e-03 1.40624994e-03
      1.71874999e-03 2.49999994e-03 1.87499996e-03 2.49999994e-03
      1.40624994e-03 1.87499996e-03 1.24999997e-03 1.24999997e-03
      1.71874999e-03 2.34374986e-03 1.56249991e-03 1.40624994e-03
      1.56249991e-03 7.81249953e-04 7.81249953e-04 1.87499996e-03
      1.71874999e-03 1.56249991e-03 1.56249991e-03 1.87499996e-03
      1.09375000e-03 1.71874999e-03 2.03124993e-03 1.40624994e-03
      1.24999997e-03 1.87499996e-03 1.71874999e-03 1.87499996e-03
      9.37499979e-04 1.71874999e-03 1.24999997e-03 1.24999997e-03
      7.81249953e-04 1.56249991e-03 2.65625003e-03 1.09375000e-03
      1.56249991e-03 2.65625003e-03 9.37499979e-04 2.18750001e-03
      2.18750001e-03 1.09375000e-03 1.71874999e-03 1.09375000e-03
      1.24999997e-03 1.40624994e-03 1.40624994e-03 1.24999997e-03
      2.18750001e-03 2.49999994e-03 2.03124993e-03 2.03124993e-03
      2.34374986e-03 2.03124993e-03 1.71874999e-03 1.09375000e-03
      7.81249953e-04 1.71874999e-03 2.81249988e-03 2.18750001e-03
      1.24999997e-03 1.56249991e-03 1.24999997e-03 1.40624994e-03
      1.56249991e-03 2.96874996e-03 1.09375000e-03 1.40624994e-03
      3.12499993e-04 1.40624994e-03 1.87499996e-03 1.24999997e-03
      7.81249953e-04 2.03124993e-03 1.56249991e-03 1.24999997e-03
      1.24999997e-03 1.56249991e-03 2.65625003e-03 2.96874996e-03
      1.87499996e-03 2.03124993e-03 2.96874996e-03 1.71874999e-03
      1.71874999e-03 2.03124993e-03 2.34374986e-03 2.18750001e-03
      2.81249988e-03 2.65625003e-03 1.71874999e-03 2.49999994e-03
      1.87499996e-03 1.71874999e-03 2.96874996e-03 2.81249988e-03
      1.09375000e-03 1.24999997e-03 1.56249991e-03 1.56249991e-03
      9.37499979e-04 3.12499981e-03 2.03124993e-03 2.49999994e-03
      2.18750001e-03 2.96874996e-03 3.28124990e-03 1.87499996e-03
      2.81249988e-03 3.28124990e-03 3.28124990e-03 2.65625003e-03
      4.37500002e-03 2.81249988e-03 2.81249988e-03 2.49999994e-03
      4.21874970e-03 3.74999992e-03 3.59374983e-03 5.46874991e-03
      4.53124987e-03 3.74999992e-03 3.74999992e-03 3.74999992e-03
      2.49999994e-03 3.59374983e-03 3.74999992e-03 4.21874970e-03
      4.21874970e-03 3.90625000e-03 3.74999992e-03 3.74999992e-03
      5.15624974e-03 4.21874970e-03 6.71874965e-03 4.21874970e-03
      6.71874965e-03 8.75000004e-03 9.37499944e-03 9.99999978e-03
      9.06249974e-03 1.57812499e-02 1.24999993e-02 2.26562489e-02
      1.84374992e-02 2.78124996e-02 2.73437500e-02 3.68749984e-02
      5.07812500e-02 3.96874994e-02 5.14062494e-02 1.59531251e-01 0. 0.
      0. 0. 0. 0. 0. 0. 0. 0. 0. 0. 0. 0. 0. 0. 0. 0. 0. 0. 0. 0. 0. 0.
      0. 0. 0. 0. 0. 0. 0. 0. 0. 0. 0. 0. 0. 0. 0. 0. 0. 0. 0. 0. 0. 0.
      0. 0. 0. 0. 0. 0. 0. 0. 1.56249997e-04 1.56249997e-04
      1.56249997e-04 3.12499993e-04 0. 0. 1.56249997e-04 1.56249997e-04
      3.12499993e-04 3.12499993e-04 6.24999986e-04 7.81249953e-04 0. 0.
      7.81249953e-04 1.56249997e-04 1.56249997e-04 3.12499993e-04
      1.56249997e-04 3.12499993e-04 1.56249997e-04 1.56249997e-04
      1.56249997e-04 4.68749990e-04 6.24999986e-04 4.68749990e-04
      1.56249997e-04 4.68749990e-04 3.12499993e-04 9.37499979e-04
      4.68749990e-04 3.12499993e-04 7.81249953e-04 6.24999986e-04
      6.24999986e-04 9.37499979e-04 9.37499979e-04 7.81249953e-04
      9.37499979e-04 6.24999986e-04 1.24999997e-03 1.56249997e-04
      7.81249953e-04 1.71874999e-03 1.09375000e-03 1.71874999e-03
      1.56249991e-03 3.12499993e-04 1.24999997e-03 1.71874999e-03
      2.49999994e-03 3.12499981e-03 1.40624994e-03 1.87499996e-03
      3.74999992e-03 2.18750001e-03 2.49999994e-03 4.37500002e-03
      5.15624974e-03 7.03124981e-03 1.04687493e-02 9.99999978e-03
      9.68750007e-03 9.21874959e-03 4.21874970e-03 4.84375004e-03
      4.53124987e-03 4.37500002e-03 4.84375004e-03 5.15624974e-03
      5.31250006e-03 5.62499976e-03 6.24999963e-03 5.93749993e-03
      7.96874985e-03 8.59375019e-03 1.18749999e-02 1.40624996e-02
      1.79687496e-02 2.09374987e-02 2.45312490e-02 2.23437492e-02
      1.71875004e-02 1.32812494e-02 9.84374993e-03 7.81250000e-03
      9.68750007e-03 7.81250000e-03 9.21874959e-03 7.34374998e-03
      6.87499996e-03 7.49999983e-03 4.84375004e-03 5.62499976e-03
      6.87499996e-03 5.46874991e-03 6.87499996e-03 7.03124981e-03
      7.18749966e-03 8.12499970e-03 7.18749966e-03 5.46874991e-03
      5.46874991e-03 7.34374998e-03 7.03124981e-03 8.28124955e-03
      4.21874970e-03 7.81250000e-03 7.49999983e-03 7.49999983e-03
      6.56249980e-03 6.24999963e-03 4.99999989e-03 6.24999963e-03
      6.24999963e-03 7.49999983e-03 7.96874985e-03 7.81250000e-03
      5.93749993e-03 8.12499970e-03 7.81250000e-03 8.75000004e-03
      8.43749940e-03 8.12499970e-03 7.49999983e-03 1.01562496e-02
      9.21874959e-03 8.75000004e-03 1.07812500e-02 1.07812500e-02
      1.32812494e-02 1.51562495e-02 1.59374997e-02 1.54687492e-02
      1.51562495e-02 1.68749988e-02 1.76562499e-02 1.81249995e-02
      1.96874999e-02 1.71875004e-02 1.60937496e-02 1.42187495e-02
      1.76562499e-02 1.76562499e-02 1.65624991e-02 1.57812499e-02
      1.31249996e-02 1.34374993e-02 1.12499995e-02 8.28124955e-03
      6.09374978e-03 5.15624974e-03 3.28124990e-03 3.43749998e-03
      2.49999994e-03 1.71874999e-03 2.34374986e-03 1.24999997e-03
      1.71874999e-03 2.34374986e-03 1.09375000e-03 1.09375000e-03
      9.37499979e-04 4.68749990e-04 3.12499993e-04 7.81249953e-04
      3.12499993e-04 1.56249997e-04 4.68749990e-04 1.56249997e-04 0.
      1.56249997e-04 3.12499993e-04 3.12499993e-04 0. 0. 0. 0. 0. 0. 0.
      0. 1.56249997e-04 1.56249997e-04 0. 0. 0. 0. 0. 1.56249997e-04 0.
      0. 0. 0. 0. 0. 0. 0. 0. 0. 0. 0.</_>
    <_>
      0. 0. 0. 0. 0. 0. 0. 0. 0. 0. 0. 0. 0. 0. 0. 0. 0. 0. 0.
      6.24999986e-04 2.81249988e-03 7.49999983e-03 8.28124955e-03
      8.75000004e-03 1.17187500e-02 1.01562496e-02 1.14062494e-02
      3.50000001e-02 2.18749996e-02 4.37500002e-03 3.74999992e-03
      2.03124993e-03 1.24999997e-03 4.68749972e-03 1.56249991e-03
      1.40624994e-03 5.15624974e-03 2.34374986e-03 2.03124993e-03
      2.81249988e-03 2.65625003e-03 2.03124993e-03 9.06249974e-03
      1.45312501e-02 2.89062485e-02 3.32812481e-02 3.81250009e-02
      5.71874976e-02 8.07812512e-02 5.70312478e-02 1.55781239e-01
      5.85937500e-02 3.87500003e-02 4.26562503e-02 6.46874979e-02
      8.31249952e-02 5.42187504e-02 1.78124998e-02 5.78125007e-03
      3.12499981e-03 1.24999997e-03 3.12499993e-04 0. 3.12499993e-04 0.
      1.56249997e-04 1.56249997e-04 0. 0. 1.56249997e-04 0. 0. 0. 0. 0.
      0. 0. 0. 0. 0. 0. 0. 0. 0. 0. 0. 0. 0. 0. 0. 0. 0. 0. 0. 0. 0. 0.
      0. 0. 0. 0. 0. 0. 0. 0. 0. 0. 0. 0. 0. 0. 0. 0. 0. 0. 0. 0. 0. 0.
      0. 0. 0. 0. 0. 0. 0. 0. 0. 0. 0. 0. 0. 0. 0. 0. 0. 0. 0. 0. 0. 0.
      0. 0. 0. 0. 0. 0. 0. 0. 0. 0. 0. 0. 0. 0. 0. 0. 0. 0. 0. 0. 0. 0.
      0. 0. 0. 0. 0. 0. 0. 0. 0. 0. 0. 0. 0. 0. 0. 0. 0. 0. 0. 0. 0. 0.
      0. 0. 0. 0. 0. 0. 0. 0. 0. 0. 0. 0. 0. 0. 0. 0. 0. 0. 0. 0. 0. 0.
      0. 0. 0. 0. 0. 0. 0. 0. 0. 0. 0. 0. 0. 0. 0. 0. 0. 0. 0. 0. 0. 0.
      0. 0. 0. 0. 0. 0. 0. 0. 0. 0. 0. 0. 0. 0. 1.56249997e-04
      1.56249997e-04 1.24999997e-03 2.03124993e-03 1.09375000e-03
      1.71874999e-03 2.96874996e-03 3.74999992e-03 2.96874996e-03
      4.53124987e-03 4.84375004e-03 5.62499976e-03 7.81250000e-03
      6.24999963e-03 6.87499996e-03 7.34374998e-03 9.84374993e-03
      6.71874965e-03 9.06249974e-03 6.24999963e-03 6.56249980e-03
      4.68749972e-03 8.90624989e-03 2.34374986e-03 5.15624974e-03
      2.34374986e-03 3.28124990e-03 2.96874996e-03 2.96874996e-03
      1.71874999e-03 1.09375000e-03 1.24999997e-03 1.09375000e-03
      9.37499979e-04 1.71874999e-03 1.40624994e-03 4.68749990e-04
      3.28124990e-03 9.37499979e-04 7.81249953e-04 9.37499979e-04
      1.09375000e-03 3.90625000e-03 1.56249997e-04 1.09375000e-03
      1.09375000e-03 1.56249997e-04 9.37499979e-04 1.56249997e-04
      1.24999997e-03 9.37499979e-04 6.24999986e-04 7.81249953e-04
      1.24999997e-03 6.24999986e-04 9.37499979e-04 7.81249953e-04
      1.09375000e-03 4.68749990e-04 1.56249991e-03 9.37499979e-04
      4.68749990e-04 6.24999986e-04 1.24999997e-03 4.68749990e-04
      1.24999997e-03 1.56249991e-03 4.68749990e-04 1.40624994e-03
      1.56249991e-03 9.37499979e-04 6.24999986e-04 1.24999997e-03
      1.71874999e-03 1.09375000e-03 1.24999997e-03 2.03124993e-03
      1.09375000e-03 1.24999997e-03 1.71874999e-03 1.56249991e-03
      6.24999986e-04 3.74999992e-03 1.56249991e-03 1.24999997e-03
      1.71874999e-03 1.40624994e-03 1.09375000e-03 1.40624994e-03
      9.99999978e-03 1.56249991e-03 1.09375000e-03 1.24999997e-03
      1.56249991e-03 1.40624994e-03 1.24999997e-03 1.09375000e-03
      1.71874999e-03 2.03124993e-03 2.18750001e-03 4.84375004e-03
      1.24999997e-03 1.40624994e-03 1.56249991e-03 1.24999997e-03
      1.40624994e-03 1.09375000e-03 2.18750001e-03 1.24999997e-03
      1.56249991e-03 1.24999997e-03 1.24999997e-03 4.37500002e-03
      1.56249991e-03 9.37499979e-04 1.09375000e-03 2.03124993e-03
      1.24999997e-03 3.74999992e-03 2.18750001e-03 6.24999986e-04
      2.03124993e-03 1.40624994e-03 2.03124993e-03 1.24999997e-03
      1.24999997e-03 2.34374986e-03 1.40624994e-03 2.49999994e-03
      2.03124993e-03 1.56249991e-03 1.56249991e-03 1.24999997e-03
      2.34374986e-03 2.49999994e-03 2.65625003e-03 1.87499996e-03
      3.59374983e-03 2.18750001e-03 2.65625003e-03 1.87499996e-03
      2.65625003e-03 3.12499981e-03 1.71874999e-03 3.59374983e-03
      2.81249988e-03 3.43749998e-03 7.49999983e-03 2.65625003e-03
      3.59374983e-03 2.81249988e-03 4.37500002e-03 5.31250006e-03
      3.74999992e-03 3.74999992e-03 2.65625003e-03 2.81249988e-03
      3.90625000e-03 4.06249985e-03 4.99999989e-03 5.31250006e-03
      9.37499944e-03 7.96874985e-03 8.28124955e-03 1.26562500e-02
      8.75000004e-03 8.90624989e-03 9.99999978e-03 1.28124999e-02
      9.06249974e-03 1.34374993e-02 1.45312501e-02 1.39062498e-02
      1.57812499e-02 1.51562495e-02 1.26562500e-02 1.53124994e-02
      2.34375000e-02 1.70312505e-02 2.43749991e-02 2.09374987e-02
      2.37499997e-02 1.99999996e-02 2.74999999e-02 2.49999985e-02
      2.24999990e-02 2.99999993e-02 1.68749988e-02 3.65624987e-02
      2.17187498e-02 5.78125007e-03 7.18749985e-02 0. 4.32812497e-02 0.
      0. 0. 0. 0. 0. 0. 0. 0. 0. 0. 0. 0. 0. 0. 0. 0. 0. 0. 0. 0. 0. 0.
      0. 0. 0. 0. 0. 0. 7.81249953e-04 3.74999992e-03 4.53124987e-03
      5.93749993e-03 4.21874970e-03 2.03124993e-03 2.03124993e-03
      1.87499996e-03 1.40624994e-03 1.40624994e-03 9.37499979e-04
      9.37499979e-04 1.09375000e-03 1.24999997e-03 9.37499979e-04
      1.09375000e-03 9.37499979e-04 9.37499979e-04 9.37499979e-04
      1.40624994e-03 7.81249953e-04 1.09375000e-03 6.24999986e-04
      9.37499979e-04 1.40624994e-03 9.37499979e-04 1.40624994e-03
      1.09375000e-03 1.09375000e-03 2.49999994e-03 1.09375000e-03
      1.40624994e-03 9.37499979e-04 1.40624994e-03 7.81249953e-04
      1.09375000e-03 1.56249997e-04 3.12499993e-04 7.81249953e-04
      4.68749990e-04 6.24999986e-04 1.24999997e-03 4.68749990e-04
      4.68749990e-04 1.56249997e-04 3.12499993e-04 3.12499993e-04
      3.43749998e-03 3.12499993e-04 3.12499993e-04 3.12499993e-04
      1.56249997e-04 4.68749990e-04 2.96874996e-03 3.12499981e-03
      9.37499979e-04 4.06249985e-03 9.37499979e-04 1.24999997e-03
      1.71874999e-03 7.65624968e-03 8.12499970e-03 3.59374983e-03
      4.21874970e-03 7.65624968e-03 5.93749993e-03 4.99999989e-03
      4.06249985e-03 1.56249991e-03 4.99999989e-03 2.81249988e-03
      6.56249980e-03 7.03124981e-03 3.12499981e-03 6.40624994e-03
      1.26562500e-02 3.20312493e-02 4.45312485e-02 4.43749987e-02
      3.76562476e-02 3.06249987e-02 2.14062501e-02 3.51562500e-02
      2.76562497e-02 2.87499987e-02 3.89062501e-02 2.85937488e-02
      2.53125001e-02 2.93749999e-02 1.89062487e-02 1.87499989e-02
      3.10937501e-02 2.14062501e-02 2.18749996e-02 1.93750001e-02
      2.31250003e-02 2.23437492e-02 2.26562489e-02 2.23437492e-02
      1.96874999e-02 1.39062498e-02 1.15625001e-02 1.10937497e-02
      9.06249974e-03 1.14062494e-02 1.06250001e-02 1.03124995e-02
      1.31249996e-02 9.37499944e-03 7.81250000e-03 6.24999963e-03
      6.09374978e-03 5.62499976e-03 4.37500002e-03 4.68749972e-03
      4.68749972e-03 2.65625003e-03 1.71874999e-03 1.56249991e-03
      2.34374986e-03 1.40624994e-03 1.24999997e-03 1.24999997e-03
      1.09375000e-03 6.24999986e-04 7.81249953e-04 7.81249953e-04
      9.37499979e-04 3.12499993e-04 1.56249997e-04 0. 6.24999986e-04
      3.12499993e-04 9.37499979e-04 4.68749990e-04 4.68749990e-04
      1.56249997e-04 3.12499993e-04 0. 1.56249997e-04 0. 0. 0. 0. 0. 0.
      0. 0. 0. 0. 0. 0. 0. 0. 0. 0. 0. 0. 0. 0. 0. 0. 0. 0. 0. 0. 0. 0.
      0. 0. 0. 0. 0. 0. 0. 0. 0. 0. 0. 0. 0. 0. 0. 0. 0. 0. 0. 0. 0. 0.
      0. 0. 0. 0. 0. 0. 0. 0. 0. 0. 0. 0. 0. 0. 0. 0. 0. 0. 0. 0. 0. 0.
      0. 0. 0. 0. 0. 0. 0. 0. 0. 0. 0. 0. 0. 0. 0.</_>
    <_>
      1.56249997e-04 0. 0. 0. 0. 0. 0. 0. 0. 0. 0. 0. 0. 0. 0. 0.
      1.56249997e-04 0. 0. 0. 4.68749990e-04 6.24999986e-04
      3.12499993e-04 2.03124993e-03 1.24999997e-03 1.56249991e-03
      4.21874970e-03 4.21874970e-03 2.18750001e-03 0. 1.12499995e-02
      7.81249953e-04 5.15624974e-03 2.59374995e-02 1.17187500e-02
      6.56249980e-03 3.90625000e-03 4.37500002e-03 3.90625000e-03
      1.06250001e-02 1.40624996e-02 4.99999989e-03 3.28124990e-03
      1.42187495e-02 2.18750001e-03 1.59374997e-02 7.81249953e-04
      6.71874965e-03 2.81249988e-03 8.75000004e-03 7.34374998e-03
      2.65625003e-03 3.12499993e-04 5.31250006e-03 9.68750007e-03
      2.34374986e-03 2.18750001e-03 2.96874996e-03 3.12499993e-04 0.
      1.18749999e-02 0. 1.56249997e-04 1.40624994e-03 1.34374993e-02
      3.12499981e-03 1.56249991e-03 3.12499993e-04 9.37499944e-03
      5.46874991e-03 4.84375004e-03 2.49999994e-03 3.12499981e-03
      8.59375019e-03 9.37499979e-04 8.90624989e-03 1.09375000e-03
      4.53124987e-03 3.43749998e-03 3.59374983e-03 4.68749972e-03
      1.03124995e-02 1.56249991e-03 1.14062494e-02 3.12499981e-03
      4.37500002e-03 3.28124990e-03 3.28124990e-03 1.87499996e-03
      1.56249997e-04 1.07812500e-02 1.09375000e-03 3.43749998e-03
      5.31250006e-03 6.71874965e-03 1.10937497e-02 3.04687489e-02
      1.35156244e-01 2.33750001e-01 4.98437472e-02 2.90625002e-02
      3.60937491e-02 6.90625012e-02 3.37499976e-02 9.37499979e-04
      9.37499979e-04 0. 3.12499993e-04 0. 1.56249997e-04 3.12499993e-04
      0. 0. 1.56249997e-04 1.56249997e-04 0. 0. 0. 0. 0. 0. 0. 0. 0. 0.
      0. 0. 0. 1.56249997e-04 0. 1.56249997e-04 0. 0. 0. 0.
      1.56249997e-04 0. 0. 0. 0. 0. 0. 0. 0. 0. 0. 0. 0. 0. 0.
      1.56249997e-04 0. 0. 0. 0. 0. 0. 0. 0. 0. 0. 0. 0. 0. 0.
      1.56249997e-04 0. 0. 0. 0. 0. 0. 0. 0. 0. 0. 0. 0. 0. 0. 0.
      1.56249997e-04 0. 3.12499993e-04 1.56249997e-04 4.37500002e-03
      3.12499993e-04 5.15624974e-03 3.12499993e-04 1.73437502e-02
      7.81249953e-04 1.51562495e-02 2.18750001e-03 2.09374987e-02
      6.09374978e-03 5.37499972e-02 1.43749993e-02 2.54687499e-02
      1.32812494e-02 2.03124993e-02 2.37499997e-02 1.20312497e-02
      2.10937504e-02 8.90624989e-03 1.43749993e-02 8.59375019e-03
      7.18749966e-03 7.18749966e-03 7.49999983e-03 3.90625000e-03
      4.68749972e-03 4.68749972e-03 3.43749998e-03 4.53124987e-03
      4.21874970e-03 3.59374983e-03 2.18750001e-03 3.43749998e-03
      2.18750001e-03 1.24999997e-03 3.12499981e-03 3.12499981e-03
      1.71874999e-03 2.96874996e-03 1.71874999e-03 1.24999997e-03
      1.09375000e-03 1.24999997e-03 2.49999994e-03 1.24999997e-03
      7.81249953e-04 1.71874999e-03 1.40624994e-03 9.37499979e-04
      9.37499979e-04 6.24999986e-04 7.81249953e-04 9.37499979e-04
      4.68749990e-04 6.24999986e-04 1.56249997e-04 1.40624994e-03
      1.56249997e-04 3.12499993e-04 6.24999986e-04 1.56249997e-04
      1.56249991e-03 3.12499993e-04 6.24999986e-04 9.37499979e-04
      1.09375000e-03 1.09375000e-03 7.81249953e-04 4.68749990e-04
      4.68749990e-04 6.24999986e-04 3.12499993e-04 3.12499993e-04
      4.68749990e-04 4.68749990e-04 3.12499993e-04 6.24999986e-04
      1.56249997e-04 0. 1.56249997e-04 4.68749990e-04 3.12499993e-04
      6.24999986e-04 6.24999986e-04 3.12499993e-04 1.56249997e-04
      3.12499993e-04 1.56249997e-04 3.12499993e-04 7.81249953e-04
      7.81249953e-04 6.24999986e-04 3.12499993e-04 1.56249997e-04
      3.12499993e-04 1.56249997e-04 1.56249997e-04 1.56249997e-04
      1.56249997e-04 4.68749990e-04 7.81249953e-04 4.68749990e-04
      3.12499993e-04 7.81249953e-04 6.24999986e-04 4.68749990e-04
      4.68749990e-04 4.68749990e-04 3.12499993e-04 3.12499993e-04
      3.12499993e-04 6.24999986e-04 3.12499993e-04 0. 3.12499993e-04
      3.12499993e-04 6.24999986e-04 3.12499993e-04 1.56249997e-04
      6.24999986e-04 6.24999986e-04 4.68749990e-04 4.68749990e-04
      4.68749990e-04 4.68749990e-04 3.12499993e-04 0. 4.68749990e-04
      6.24999986e-04 0. 4.68749990e-04 7.81249953e-04 1.56249997e-04 0.
      4.68749990e-04 1.56249997e-04 3.12499993e-04 3.12499993e-04
      3.12499993e-04 1.56249997e-04 1.56249997e-04 7.81249953e-04 0.
      3.12499993e-04 4.68749990e-04 1.56249997e-04 1.56249997e-04
      1.56249997e-04 1.56249997e-04 1.56249997e-04 0. 1.56249997e-04
      4.68749990e-04 1.56249997e-04 4.68749990e-04 4.68749990e-04
      1.56249997e-04 6.24999986e-04 3.12499993e-04 3.12499993e-04
      1.56249997e-04 4.68749990e-04 4.68749990e-04 4.68749990e-04
      4.68749990e-04 6.24999986e-04 4.68749990e-04 0. 0. 4.68749990e-04
      1.56249997e-04 3.12499993e-04 4.68749990e-04 3.12499993e-04
      4.68749990e-04 9.37499979e-04 1.56249997e-04 4.68749990e-04
      1.56249997e-04 7.81249953e-04 0. 1.56249997e-04 1.56249997e-04
      3.12499993e-04 3.12499993e-04 0. 3.12499993e-04 0. 3.12499993e-04
      3.12499993e-04 4.68749990e-04 1.56249997e-04 7.81249953e-04
      4.68749990e-04 1.56249997e-04 1.56249997e-04 3.12499993e-04
      9.37499979e-04 3.12499993e-04 6.24999986e-04 7.81249953e-04
      4.68749990e-04 6.24999986e-04 3.12499993e-04 3.12499993e-04
      1.40624994e-03 9.37499979e-04 1.56249997e-04 6.24999986e-04
      7.81249953e-04 4.68749990e-04 6.24999986e-04 6.24999986e-04
      3.12499993e-04 4.68749990e-04 3.12499993e-04 3.12499993e-04
      4.68749990e-04 3.12499993e-04 7.81249953e-04 3.12499993e-04
      6.24999986e-04 3.12499993e-04 7.81249953e-04 4.68749990e-04
      1.09375000e-03 7.81249953e-04 6.24999986e-04 1.09375000e-03
      1.24999997e-03 7.81249953e-04 9.37499979e-04 9.37499979e-04
      1.24999997e-03 9.37499979e-04 1.71874999e-03 1.40624994e-03
      2.03124993e-03 1.24999997e-03 2.03124993e-03 2.65625003e-03
      3.59374983e-03 3.74999992e-03 7.03124981e-03 7.96874985e-03
      1.06250001e-02 1.15625001e-02 2.14062501e-02 2.42187493e-02
      4.65625003e-02 5.84375001e-02 3.35781246e-01 0. 0. 0. 0. 0. 0. 0.
      0. 0. 0. 0. 0. 0. 0. 0. 0. 0. 0. 0. 0. 0. 0. 0. 0. 0. 0. 0. 0. 0.
      0. 0. 0. 0. 0. 0. 0. 0. 0. 0. 0. 0. 0. 0. 0. 0. 0. 0. 0. 0. 0. 0.
      0. 0. 0. 0. 0. 0. 0. 0. 0. 1.56249997e-04 1.56249997e-04
      1.56249997e-04 0. 1.56249997e-04 4.68749990e-04 4.68749990e-04
      1.56249997e-04 1.56249997e-04 3.12499993e-04 7.81249953e-04
      9.37499979e-04 1.40624994e-03 1.24999997e-03 2.03124993e-03
      2.18750001e-03 3.74999992e-03 3.12499981e-03 2.34374986e-03
      2.34374986e-03 2.18750001e-03 2.81249988e-03 2.96874996e-03
      3.43749998e-03 2.96874996e-03 2.65625003e-03 3.28124990e-03
      3.74999992e-03 3.28124990e-03 4.84375004e-03 2.65625003e-03
      3.12499981e-03 5.15624974e-03 3.74999992e-03 3.59374983e-03
      4.53124987e-03 3.74999992e-03 5.46874991e-03 4.99999989e-03
      5.78125007e-03 5.31250006e-03 3.59374983e-03 5.15624974e-03
      5.78125007e-03 7.03124981e-03 3.43749998e-03 4.68749972e-03
      4.68749972e-03 6.71874965e-03 9.84374993e-03 1.10937497e-02
      7.65624968e-03 4.99999989e-03 3.90625000e-03 2.96874996e-03
      3.43749998e-03 3.90625000e-03 5.31250006e-03 6.87499996e-03
      7.34374998e-03 7.34374998e-03 1.12499995e-02 1.23437494e-02
      2.07812488e-02 1.95312500e-02 2.10937504e-02 2.12500002e-02
      2.81249993e-02 2.54687499e-02 2.51562502e-02 2.68749986e-02
      3.24999988e-02 3.29687484e-02 1.62499994e-02 1.23437494e-02
      9.06249974e-03 5.93749993e-03 4.21874970e-03 5.46874991e-03
      6.09374978e-03 5.62499976e-03 4.53124987e-03 4.53124987e-03
      6.40624994e-03 2.49999994e-03 4.53124987e-03 4.99999989e-03
      4.68749972e-03 4.21874970e-03 5.15624974e-03 3.59374983e-03
      2.96874996e-03 3.28124990e-03 4.21874970e-03 2.49999994e-03
      2.81249988e-03 1.56249991e-03 1.71874999e-03 7.81249953e-04
      6.24999986e-04 6.24999986e-04 1.24999997e-03 1.71874999e-03
      7.81249953e-04 1.56249991e-03 1.71874999e-03 1.71874999e-03
      1.71874999e-03 1.71874999e-03 7.81249953e-04 7.81249953e-04
      1.56249991e-03 1.71874999e-03 1.87499996e-03 4.68749990e-04
      1.40624994e-03 1.56249991e-03 1.40624994e-03 2.81249988e-03
      1.40624994e-03 1.87499996e-03 1.56249991e-03 3.59374983e-03
      2.81249988e-03 3.74999992e-03 4.06249985e-03 4.68749972e-03
      7.49999983e-03 7.18749966e-03 1.79687496e-02 3.40625010e-02
      4.68750000e-02 2.64062490e-02 2.76562497e-02 1.96874999e-02
      2.18749996e-02 1.81249995e-02 2.67187487e-02 2.89062485e-02
      2.28124987e-02 7.65624968e-03 3.74999992e-03 2.34374986e-03
      1.24999997e-03 1.56249997e-04 4.68749990e-04 4.68749990e-04
      3.12499993e-04 3.12499993e-04 0. 1.56249997e-04 0. 0. 0. 0. 0. 0.
      0. 0. 0. 0. 0. 0. 0. 0. 0. 0. 0. 0. 0. 0. 0. 0. 0. 0. 0. 0. 0. 0.
      0. 0. 0. 0. 0. 0. 0. 0. 0. 0. 0. 0. 0. 0. 0. 0. 0.</_>
    <_>
      4.68749990e-04 0. 0. 0. 0. 0. 0. 0. 0. 0. 0. 0. 0. 0.
      3.12499993e-04 7.34374998e-03 1.14062494e-02 1.56249991e-03
      3.90625000e-03 1.04687493e-02 1.59374997e-02 2.89062485e-02
      1.67187490e-02 3.31249982e-02 2.32812501e-02 1.87499989e-02
      1.85937490e-02 2.40624994e-02 8.28124955e-03 6.71874965e-03
      1.60937496e-02 4.06249985e-03 1.23437494e-02 7.65624968e-03
      1.07812500e-02 8.43749940e-03 3.90625000e-03 5.62499976e-03
      6.24999963e-03 5.78125007e-03 4.68749972e-03 5.46874991e-03
      3.90625000e-03 3.90625000e-03 1.12499995e-02 4.37500002e-03
      1.64062493e-02 7.81250000e-03 9.99999978e-03 9.21874959e-03
      1.28124999e-02 9.37499944e-03 9.99999978e-03 1.35937501e-02
      7.03124981e-03 7.65624968e-03 1.09374998e-02 5.62499976e-03
      8.59375019e-03 5.46874991e-03 1.48437498e-02 6.09374978e-03
      8.59375019e-03 9.06249974e-03 1.01562496e-02 1.34374993e-02
      1.65624991e-02 1.85937490e-02 1.93750001e-02 1.96874999e-02
      2.45312490e-02 4.06249985e-02 5.06250001e-02 8.67187455e-02
      6.39062449e-02 2.28124987e-02 3.34374979e-02 2.04687491e-02
      1.29687497e-02 1.31249996e-02 8.75000004e-03 4.21874970e-03 0. 0.
      0. 0. 0. 0. 0. 0. 1.56249991e-03 0. 0. 0. 1.56249997e-04 0. 0. 0.
      6.24999986e-04 1.56249997e-04 0. 0. 0. 0. 0. 0. 0. 0. 0. 0. 0. 0.
      0. 0. 0. 0. 0. 0. 0. 0. 0. 0. 0. 0. 0. 0. 0. 0. 0. 0. 0. 0. 0. 0.
      0. 0. 0. 0. 0. 0. 0. 0. 0. 0. 0. 0. 0. 0. 0. 0. 0. 0. 0. 0. 0. 0.
      0. 0. 0. 0. 0. 0. 0. 0. 0. 0. 0. 0. 0. 0. 0. 0. 0. 0. 0. 0. 0. 0.
      0. 0. 0. 4.68749990e-04 0. 9.37499979e-04 0. 1.24999997e-03 0.
      4.68749990e-04 0. 2.03124993e-03 0. 7.81249953e-04 0.
      7.81249953e-04 3.12499993e-04 2.96874996e-03 1.56249997e-04
      6.71874965e-03 2.18750001e-03 3.74999992e-03 9.37499944e-03
      9.53125022e-03 7.81250000e-03 6.09374978e-03 6.71874965e-03
      9.68750007e-03 7.96874985e-03 7.81250000e-03 1.40624996e-02
      5.15624974e-03 9.68750007e-03 6.40624994e-03 9.21874959e-03
      3.59374983e-03 6.24999963e-03 5.31250006e-03 4.99999989e-03
      4.37500002e-03 3.28124990e-03 6.87499996e-03 1.07812500e-02
      9.99999978e-03 1.20312497e-02 9.53125022e-03 1.01562496e-02
      1.07812500e-02 1.42187495e-02 1.20312497e-02 1.09374998e-02
      7.81250000e-03 6.71874965e-03 8.75000004e-03 5.62499976e-03
      5.93749993e-03 9.06249974e-03 8.59375019e-03 7.03124981e-03
      8.12499970e-03 6.87499996e-03 9.21874959e-03 8.43749940e-03
      9.21874959e-03 7.96874985e-03 8.75000004e-03 9.68750007e-03
      1.09374998e-02 6.56249980e-03 8.59375019e-03 7.34374998e-03
      6.09374978e-03 7.03124981e-03 3.90625000e-03 5.62499976e-03
      6.87499996e-03 5.93749993e-03 8.59375019e-03 4.37500002e-03
      5.93749993e-03 5.31250006e-03 4.84375004e-03 4.21874970e-03
      4.21874970e-03 4.37500002e-03 4.21874970e-03 4.99999989e-03
      4.06249985e-03 5.93749993e-03 6.24999963e-03 3.43749998e-03
      5.31250006e-03 4.84375004e-03 5.15624974e-03 4.68749972e-03
      5.78125007e-03 5.15624974e-03 3.59374983e-03 3.74999992e-03
      3.90625000e-03 2.65625003e-03 4.84375004e-03 5.93749993e-03
      4.06249985e-03 2.65625003e-03 2.49999994e-03 5.15624974e-03
      2.34374986e-03 2.34374986e-03 1.87499996e-03 2.65625003e-03
      2.34374986e-03 2.03124993e-03 2.34374986e-03 2.65625003e-03
      1.40624994e-03 2.49999994e-03 2.65625003e-03 2.65625003e-03
      1.56249991e-03 2.65625003e-03 2.18750001e-03 1.09375000e-03
      3.28124990e-03 2.65625003e-03 1.40624994e-03 1.09375000e-03
      3.28124990e-03 3.12499993e-04 2.81249988e-03 1.09375000e-03
      3.28124990e-03 3.12499981e-03 1.40624994e-03 1.87499996e-03
      2.34374986e-03 1.71874999e-03 2.65625003e-03 1.71874999e-03
      1.87499996e-03 1.24999997e-03 2.18750001e-03 2.49999994e-03
      1.71874999e-03 2.18750001e-03 1.56249991e-03 2.34374986e-03
      1.87499996e-03 2.34374986e-03 1.71874999e-03 1.40624994e-03
      1.40624994e-03 1.40624994e-03 2.03124993e-03 1.71874999e-03
      1.87499996e-03 1.56249991e-03 6.24999986e-04 1.56249991e-03
      1.40624994e-03 2.34374986e-03 1.56249991e-03 1.71874999e-03
      1.56249991e-03 2.49999994e-03 1.56249991e-03 1.56249991e-03
      6.24999986e-04 7.81249953e-04 2.34374986e-03 7.81249953e-04
      2.18750001e-03 1.71874999e-03 7.81249953e-04 2.49999994e-03
      1.09375000e-03 7.81249953e-04 1.71874999e-03 1.40624994e-03
      2.49999994e-03 1.40624994e-03 1.87499996e-03 2.03124993e-03
      1.09375000e-03 1.24999997e-03 1.87499996e-03 2.18750001e-03
      3.12499981e-03 3.28124990e-03 3.74999992e-03 2.81249988e-03
      4.53124987e-03 3.28124990e-03 2.96874996e-03 3.90625000e-03
      2.18750001e-03 2.18750001e-03 3.43749998e-03 2.65625003e-03
      3.12499981e-03 2.65625003e-03 2.81249988e-03 6.24999963e-03
      4.21874970e-03 4.06249985e-03 1.10937497e-02 9.68750007e-03
      3.28124990e-03 5.93749993e-03 5.31250006e-03 3.59374983e-03
      8.43749940e-03 7.18749966e-03 6.87499996e-03 9.06249974e-03
      1.17187500e-02 6.40624994e-03 1.18749999e-02 8.28124955e-03
      2.07812488e-02 7.49999983e-03 3.90625000e-03 2.01562494e-02
      7.03124981e-03 4.68749990e-04 1.09375000e-03 8.43749940e-03
      3.59374983e-03 3.12499993e-04 7.81249953e-04 1.09375000e-03 0. 0.
      0. 1.56249997e-04 0. 0. 0. 0. 0. 0. 0. 0. 0. 0. 0. 0. 0. 0. 0. 0.
      0. 0. 0. 0. 0. 0. 0. 0. 0. 0. 0. 0. 0. 0. 0. 0. 0. 0. 0. 0. 0. 0.
      0. 0. 0. 0. 0. 0. 0. 0. 0. 0. 0. 0. 0. 0. 0. 0. 0. 0. 0. 0. 0. 0.
      0. 0. 0. 0. 0. 0. 0. 0. 0. 0. 0. 0. 0. 0. 0. 0. 0. 0. 0. 0. 0.
      3.12499993e-04 6.24999986e-04 1.56249991e-03 3.59374983e-03
      5.31250006e-03 1.28124999e-02 1.79687496e-02 2.76562497e-02
      2.87499987e-02 2.21874993e-02 1.75000001e-02 1.64062493e-02
      1.40624996e-02 1.43749993e-02 1.48437498e-02 2.28124987e-02
      1.75000001e-02 1.28124999e-02 1.28124999e-02 1.42187495e-02
      1.40624996e-02 1.04687493e-02 9.37499944e-03 1.09374998e-02
      9.84374993e-03 8.59375019e-03 9.21874959e-03 9.99999978e-03
      9.68750007e-03 9.06249974e-03 9.37499944e-03 1.03124995e-02
      1.15625001e-02 1.18749999e-02 9.84374993e-03 1.32812494e-02
      1.40624996e-02 1.06250001e-02 9.53125022e-03 1.46875000e-02
      1.26562500e-02 1.09374998e-02 1.03124995e-02 1.01562496e-02
      1.20312497e-02 1.31249996e-02 1.32812494e-02 1.12499995e-02
      1.23437494e-02 1.23437494e-02 1.45312501e-02 1.31249996e-02
      1.01562496e-02 1.07812500e-02 1.26562500e-02 1.21874996e-02
      1.04687493e-02 7.81250000e-03 6.71874965e-03 9.53125022e-03
      6.56249980e-03 6.71874965e-03 5.15624974e-03 7.34374998e-03
      9.68750007e-03 1.46875000e-02 2.32812501e-02 2.15624999e-02
      2.31250003e-02 1.70312505e-02 1.53124994e-02 1.62499994e-02
      2.46874988e-02 2.28124987e-02 1.87499989e-02 1.35937501e-02
      1.12499995e-02 9.21874959e-03 5.15624974e-03 4.53124987e-03
      2.34374986e-03 0. 0. 0. 0. 0. 0. 0. 0. 0. 0. 0. 0. 0. 0. 0. 0. 0.
      0. 0. 0. 0. 0. 0. 0. 0. 0. 0. 0. 0. 0. 0. 0. 0. 0. 0. 0. 0. 0. 0.
      0. 0. 0. 0. 0. 0. 0. 0. 0. 0. 0. 0. 0. 0. 0. 0. 0. 0. 0. 0. 0. 0.
      0. 0. 0. 0. 0. 0. 0. 0. 0. 0. 0. 0. 0. 0. 0. 0. 0. 0. 0. 0. 0. 0.
      0. 0. 0. 0. 0. 0. 0. 0. 0. 0. 0. 0. 0. 0. 0. 0. 0. 0. 0. 0. 0. 0.
      0. 0. 0. 0. 0. 0. 0. 0. 0. 0. 0. 0. 0.</_>
    <_>
      1.25156254e-01 3.53124999e-02 2.45312490e-02 1.96874999e-02
      1.96874999e-02 1.53124994e-02 2.32812501e-02 2.14062501e-02
      3.14062499e-02 2.64062490e-02 2.32812501e-02 1.51562495e-02
      1.34374993e-02 6.24999963e-03 3.43749998e-03 3.59374983e-03
      1.24999997e-03 1.24999997e-03 3.12499993e-04 9.37499979e-04
      6.24999986e-04 0. 0. 0. 0. 0. 0. 0. 0. 0. 0. 0. 0. 0. 0. 0. 0. 0.
      0. 0. 0. 0. 0. 0. 0. 0. 0. 0. 0. 0. 0. 0. 0. 0. 0. 0. 0. 0. 0. 0.
      0. 0. 0. 0. 0. 0. 0. 0. 0. 0. 0. 0. 0. 0. 0. 0. 0. 0. 0. 0. 0. 0.
      0. 0. 0. 0. 0. 0. 0. 0. 0. 0. 0. 0. 0. 0. 0. 0. 0. 0. 0. 0. 0. 0.
      0. 0. 0. 0. 0. 0. 0. 0. 0. 0. 0. 0. 0. 0. 0. 0. 0. 0. 0. 0. 0. 0.
      0. 0. 0. 0. 0. 0. 0. 0. 0. 0. 0. 0. 0. 0. 0. 0. 0. 0. 0. 0. 0. 0.
      0. 0. 0. 0. 0. 0. 0. 0. 0. 0. 0. 0. 0. 0. 0. 0. 0. 0. 0. 0. 0. 0.
      0. 0. 0. 0. 0. 2.96874996e-03 1.37499999e-02 1.36093751e-01
      2.46718749e-01 1.88749999e-01 0. 0. 0. 0. 0. 0. 0. 0. 0. 0. 0. 0.
      0. 0. 0. 0. 0. 0. 0. 0. 0. 0. 0. 0. 0. 0. 0. 0. 0. 0. 0. 0. 0. 0.
      0. 0. 0. 0. 0. 0. 0. 0. 0. 0. 0. 1.24999997e-03 0. 0. 0. 0. 0. 0.
      0. 0. 1.40624994e-03 1.56249997e-04 0. 0. 1.40624994e-03 0.
      1.40624994e-03 4.68749990e-04 4.68749990e-04 4.06249985e-03
      2.03124993e-03 3.28124990e-03 2.81249988e-03 4.37500002e-03
      4.21874970e-03 5.46874991e-03 5.31250006e-03 4.06249985e-03
      4.37500002e-03 6.71874965e-03 4.06249985e-03 3.12499981e-03
      3.90625000e-03 2.49999994e-03 4.99999989e-03 5.46874991e-03
      7.03124981e-03 5.31250006e-03 5.15624974e-03 5.78125007e-03
      1.71874999e-03 3.74999992e-03 4.68749990e-04 1.40624994e-03
      1.71874999e-03 4.99999989e-03 1.71874999e-03 2.34374986e-03
      1.71874999e-03 2.34374986e-03 1.40624994e-03 1.56249991e-03
      1.87499996e-03 1.56249991e-03 2.34374986e-03 1.09375000e-03
      1.09375000e-03 1.40624994e-03 9.37499979e-04 1.71874999e-03
      9.37499979e-04 1.09375000e-03 1.40624994e-03 1.09375000e-03
      7.81249953e-04 1.56249991e-03 1.40624994e-03 1.40624994e-03
      2.18750001e-03 1.87499996e-03 3.59374983e-03 2.96874996e-03
      3.59374983e-03 3.90625000e-03 2.18750001e-03 1.09375000e-03
      2.65625003e-03 1.87499996e-03 2.34374986e-03 2.18750001e-03
      2.18750001e-03 3.90625000e-03 3.43749998e-03 4.06249985e-03
      2.34374986e-03 2.81249988e-03 2.81249988e-03 1.87499996e-03
      2.81249988e-03 3.43749998e-03 4.06249985e-03 3.28124990e-03
      2.34374986e-03 2.81249988e-03 2.81249988e-03 3.74999992e-03
      3.90625000e-03 2.49999994e-03 3.90625000e-03 2.49999994e-03
      2.81249988e-03 1.71874999e-03 2.65625003e-03 1.40624994e-03
      3.28124990e-03 1.56249991e-03 1.40624994e-03 1.56249991e-03
      1.56249991e-03 1.56249991e-03 1.71874999e-03 2.96874996e-03
      1.56249991e-03 1.24999997e-03 1.09375000e-03 2.18750001e-03
      2.49999994e-03 1.40624994e-03 1.40624994e-03 6.24999986e-04
      1.71874999e-03 2.49999994e-03 2.49999994e-03 1.87499996e-03
      1.40624994e-03 1.56249991e-03 1.71874999e-03 9.37499979e-04
      2.96874996e-03 2.49999994e-03 1.24999997e-03 2.18750001e-03
      1.09375000e-03 2.65625003e-03 2.03124993e-03 3.59374983e-03
      2.34374986e-03 2.81249988e-03 2.65625003e-03 1.87499996e-03
      2.03124993e-03 2.34374986e-03 2.49999994e-03 2.49999994e-03
      4.53124987e-03 4.21874970e-03 7.49999983e-03 1.26562500e-02
      8.90624989e-03 6.56249980e-03 4.84375004e-03 5.31250006e-03
      6.09374978e-03 5.31250006e-03 6.40624994e-03 5.78125007e-03
      6.87499996e-03 1.15625001e-02 7.03124981e-03 7.34374998e-03
      8.43749940e-03 4.68749972e-03 9.84374993e-03 1.01562496e-02
      1.15625001e-02 1.51562495e-02 1.45312501e-02 2.15624999e-02
      2.39062496e-02 2.51562502e-02 2.07812488e-02 2.45312490e-02
      3.28124985e-02 2.21874993e-02 2.15624999e-02 1.84374992e-02
      1.98437497e-02 2.07812488e-02 2.32812501e-02 2.96874996e-02
      2.99999993e-02 3.56249996e-02 2.42187493e-02 2.01562494e-02
      1.46875000e-02 7.81250000e-03 4.68749972e-03 2.03124993e-03
      2.96874996e-03 2.18750001e-03 3.59374983e-03 4.06249985e-03
      4.53124987e-03 4.06249985e-03 4.68749972e-03 2.96874996e-03
      3.59374983e-03 2.96874996e-03 1.09375000e-03 2.96874996e-03
      2.65625003e-03 6.24999986e-04 0. 4.68749990e-04 1.56249997e-04 0.
      0. 0. 0. 0. 0. 0. 0. 0. 0. 0. 0. 0. 0. 0. 0. 0. 0. 0. 0. 0. 0. 0.
      0. 0. 0. 0. 0. 0. 0. 0. 0. 0. 0. 0. 0. 0. 0. 0. 0. 0. 0. 0. 0. 0.
      0. 0. 0. 0. 0. 0. 0. 0. 0. 0. 0. 0. 0. 0. 0. 0. 0. 0. 0. 0. 0. 0.
      0. 0. 0. 0. 0. 0. 0. 0. 0. 0. 0. 0. 0. 0. 0. 0. 0. 0. 0. 0. 0. 0.
      0. 0. 0. 0. 0. 0. 0. 0. 0. 0. 0. 0. 0. 0. 0. 0. 0. 0. 0. 0.
      3.12499993e-04 7.81249953e-04 6.24999986e-04 6.24999986e-04
      1.09375000e-03 9.37499979e-04 1.71874999e-03 2.18750001e-03
      2.81249988e-03 4.21874970e-03 1.06250001e-02 2.81249988e-03
      5.78125007e-03 5.93749993e-03 3.90625000e-03 4.99999989e-03
      5.15624974e-03 1.24999993e-02 9.84374993e-03 1.12499995e-02
      1.34374993e-02 1.48437498e-02 1.51562495e-02 1.54687492e-02
      1.37499999e-02 1.53124994e-02 1.18749999e-02 7.96874985e-03
      8.43749940e-03 5.78125007e-03 5.78125007e-03 4.99999989e-03
      6.40624994e-03 5.78125007e-03 5.93749993e-03 5.31250006e-03
      4.84375004e-03 6.71874965e-03 5.46874991e-03 4.53124987e-03
      2.96874996e-03 6.24999963e-03 5.15624974e-03 3.90625000e-03
      4.53124987e-03 4.68749972e-03 5.46874991e-03 7.03124981e-03
      4.68749972e-03 7.03124981e-03 5.15624974e-03 7.03124981e-03
      7.49999983e-03 9.21874959e-03 4.84375004e-03 7.18749966e-03
      8.90624989e-03 1.18749999e-02 1.23437494e-02 1.54687492e-02
      2.23437492e-02 2.46874988e-02 2.51562502e-02 2.57812496e-02
      1.93750001e-02 1.39062498e-02 1.32812494e-02 8.28124955e-03
      9.21874959e-03 7.81250000e-03 9.68750007e-03 8.28124955e-03
      9.84374993e-03 1.07812500e-02 9.68750007e-03 1.32812494e-02
      1.85937490e-02 2.73437500e-02 2.56249998e-02 2.84374990e-02
      2.90625002e-02 2.29687486e-02 2.26562489e-02 2.21874993e-02
      1.51562495e-02 2.43749991e-02 1.57812499e-02 1.67187490e-02
      1.03124995e-02 1.23437494e-02 9.53125022e-03 8.90624989e-03
      5.62499976e-03 7.03124981e-03 4.53124987e-03 3.43749998e-03
      2.96874996e-03 2.65625003e-03 4.37500002e-03 2.18750001e-03
      1.56249991e-03 1.56249991e-03 3.43749998e-03 3.43749998e-03
      1.09375000e-03 1.40624994e-03 1.71874999e-03 9.37499979e-04
      7.81249953e-04 4.68749990e-04 7.81249953e-04 3.12499993e-04
      4.68749990e-04 3.12499993e-04 0. 0. 3.12499993e-04 0. 0. 0. 0. 0.
      0. 0. 0. 0. 0. 0. 0. 0. 0. 0. 0. 0. 0. 0. 0. 0. 0. 0. 0. 0. 0. 0.
      0. 0. 0. 0. 0. 0. 0. 0. 0. 0. 0.</_>
    <_>
      0. 0. 5.46874991e-03 1.09374998e-02 2.57812496e-02 7.81250000e-02
      1.32812500e-01 1.25624999e-01 6.46874979e-02 4.54687476e-02
      4.20312509e-02 3.56249996e-02 2.90625002e-02 1.99999996e-02
      2.10937504e-02 2.10937504e-02 1.84374992e-02 1.43749993e-02
      1.23437494e-02 1.32812494e-02 1.29687497e-02 1.54687492e-02
      1.34374993e-02 1.07812500e-02 1.09374998e-02 2.85937488e-02
      1.64062493e-02 2.67187487e-02 6.56249980e-03 7.81250000e-03
      4.06249985e-03 2.49999994e-03 2.96874996e-03 2.18750001e-03
      1.71874999e-03 3.59374983e-03 2.18750001e-03 2.18750001e-03
      6.40624994e-03 4.06249985e-03 2.03124993e-03 3.90625000e-03
      3.59374983e-03 6.87499996e-03 4.53124987e-03 2.96874996e-03
      1.06250001e-02 1.04687493e-02 1.03124995e-02 1.04687493e-02
      1.17187500e-02 7.96874985e-03 4.53124987e-03 5.78125007e-03
      2.81249988e-03 3.12499993e-04 4.68749990e-04 6.24999986e-04
      6.24999986e-04 1.56249997e-04 0. 1.56249997e-04 0. 6.24999986e-04
      1.56249997e-04 4.68749990e-04 0. 0. 0. 0. 0. 0. 0. 0. 0. 0. 0. 0.
      0. 0. 0. 0. 0. 0. 0. 0. 0. 0. 0. 0. 0. 0. 0. 0. 0. 0. 0. 0. 0. 0.
      0. 0. 0. 0. 0. 0. 0. 0. 0. 0. 0. 0. 0. 0. 0. 0. 0. 0. 0. 0. 0. 0.
      0. 0. 0. 0. 0. 0. 0. 0. 0. 0. 0. 0. 0. 0. 0. 0. 0. 0. 0. 0. 0. 0.
      0. 0. 0. 0. 0. 0. 0. 0. 0. 0. 0. 0. 0. 0. 0. 0. 0. 0. 0. 0. 0. 0.
      0. 0. 0. 0. 0. 0. 0. 0. 0. 0. 0. 0. 0. 0. 0. 0. 0. 0. 0. 0. 0. 0.
      0. 0. 0. 0. 0. 0. 0. 0. 0. 0. 0. 0. 0. 0. 0. 3.12499993e-04
      3.12499993e-04 1.56249997e-04 0. 1.56249997e-04 1.56249997e-04
      4.68749990e-04 4.68749990e-04 3.12499993e-04 9.37499979e-04
      6.24999986e-04 6.24999986e-04 1.56249991e-03 1.09375000e-03
      1.24999997e-03 2.65625003e-03 2.81249988e-03 2.34374986e-03
      4.99999989e-03 6.24999963e-03 7.18749966e-03 7.03124981e-03
      7.49999983e-03 6.56249980e-03 5.62499976e-03 5.46874991e-03
      5.93749993e-03 6.09374978e-03 6.24999963e-03 7.03124981e-03
      6.40624994e-03 5.62499976e-03 4.06249985e-03 5.15624974e-03
      4.84375004e-03 2.96874996e-03 2.81249988e-03 3.12499981e-03
      3.43749998e-03 4.06249985e-03 1.71874999e-03 2.49999994e-03
      2.03124993e-03 7.81249953e-04 1.09375000e-03 2.03124993e-03
      1.71874999e-03 2.18750001e-03 1.71874999e-03 1.87499996e-03
      1.71874999e-03 1.24999997e-03 6.24999986e-04 1.71874999e-03
      1.09375000e-03 9.37499979e-04 2.03124993e-03 1.71874999e-03
      1.40624994e-03 1.56249991e-03 2.96874996e-03 2.03124993e-03
      2.65625003e-03 1.40624994e-03 3.43749998e-03 2.81249988e-03
      1.71874999e-03 4.99999989e-03 3.74999992e-03 3.28124990e-03
      4.37500002e-03 3.59374983e-03 3.59374983e-03 3.90625000e-03
      6.09374978e-03 6.56249980e-03 7.18749966e-03 6.24999963e-03
      4.21874970e-03 4.84375004e-03 6.24999963e-03 4.99999989e-03
      4.06249985e-03 5.15624974e-03 4.68749972e-03 3.74999992e-03
      3.12499981e-03 3.74999992e-03 2.96874996e-03 3.28124990e-03
      9.37499979e-04 2.96874996e-03 2.65625003e-03 3.74999992e-03
      3.43749998e-03 4.21874970e-03 4.06249985e-03 2.81249988e-03
      4.06249985e-03 2.49999994e-03 2.34374986e-03 3.74999992e-03
      3.90625000e-03 2.49999994e-03 3.90625000e-03 3.43749998e-03
      2.49999994e-03 4.06249985e-03 1.71874999e-03 3.12499981e-03
      2.96874996e-03 3.28124990e-03 3.90625000e-03 2.34374986e-03
      2.96874996e-03 2.03124993e-03 3.12499981e-03 4.99999989e-03
      2.81249988e-03 3.74999992e-03 2.65625003e-03 3.59374983e-03
      3.12499981e-03 2.81249988e-03 3.59374983e-03 2.96874996e-03
      2.34374986e-03 3.12499981e-03 1.56249991e-03 2.65625003e-03
      2.34374986e-03 2.96874996e-03 2.18750001e-03 3.12499981e-03
      3.43749998e-03 3.43749998e-03 3.74999992e-03 2.96874996e-03
      4.21874970e-03 3.12499981e-03 3.43749998e-03 3.28124990e-03
      3.43749998e-03 3.12499981e-03 2.96874996e-03 3.59374983e-03
      3.12499981e-03 2.81249988e-03 2.81249988e-03 2.65625003e-03
      3.28124990e-03 4.21874970e-03 3.28124990e-03 2.81249988e-03
      3.28124990e-03 5.62499976e-03 3.12499981e-03 4.37500002e-03
      3.59374983e-03 3.74999992e-03 3.43749998e-03 5.15624974e-03
      5.93749993e-03 3.43749998e-03 5.15624974e-03 4.21874970e-03
      4.21874970e-03 4.99999989e-03 5.31250006e-03 4.06249985e-03
      4.68749972e-03 4.84375004e-03 6.09374978e-03 6.09374978e-03
      6.24999963e-03 6.71874965e-03 4.68749972e-03 8.43749940e-03
      7.65624968e-03 6.24999963e-03 4.53124987e-03 6.56249980e-03
      6.40624994e-03 5.15624974e-03 4.37500002e-03 8.59375019e-03
      7.03124981e-03 1.03124995e-02 9.06249974e-03 1.29687497e-02
      1.21874996e-02 8.12499970e-03 1.34374993e-02 8.12499970e-03
      8.75000004e-03 1.07812500e-02 9.99999978e-03 6.71874965e-03
      7.34374998e-03 7.65624968e-03 7.18749966e-03 5.78125007e-03
      8.90624989e-03 6.24999963e-03 8.43749940e-03 8.28124955e-03
      8.59375019e-03 8.59375019e-03 6.71874965e-03 9.68750007e-03
      4.21874970e-03 7.18749966e-03 8.75000004e-03 8.75000004e-03
      9.21874959e-03 9.84374993e-03 9.84374993e-03 1.01562496e-02
      8.28124955e-03 7.03124981e-03 1.01562496e-02 4.21874970e-03
      7.96874985e-03 4.68749972e-03 2.65625003e-03 3.90625000e-03
      2.96874996e-03 3.12499981e-03 9.37499979e-04 2.96874996e-03
      1.56249997e-04 3.59374983e-03 0. 3.59374983e-03 0. 0. 0. 0. 0. 0.
      0. 0. 0. 0. 0. 0. 0. 0. 0. 0. 0. 0. 0. 0. 0. 0. 0. 0. 0. 0. 0. 0.
      0. 0. 0. 0. 0. 0. 0. 0. 0. 0. 0. 0. 0. 0. 0. 0. 0. 0. 0. 0. 0. 0.
      0. 0. 0. 0. 0. 0. 0. 0. 0. 0. 0. 0. 0. 4.68749990e-04
      4.68749990e-04 3.12499993e-04 1.56249997e-04 3.12499993e-04
      6.24999986e-04 4.68749990e-04 1.24999997e-03 1.24999997e-03
      7.81249953e-04 6.24999986e-04 7.81249953e-04 9.37499979e-04
      7.81249953e-04 1.71874999e-03 1.71874999e-03 1.40624994e-03
      1.56249991e-03 2.03124993e-03 1.87499996e-03 1.87499996e-03
      1.87499996e-03 2.96874996e-03 2.49999994e-03 2.49999994e-03
      3.28124990e-03 3.12499981e-03 2.81249988e-03 3.90625000e-03
      2.81249988e-03 4.84375004e-03 3.59374983e-03 3.43749998e-03
      4.37500002e-03 5.62499976e-03 6.24999963e-03 5.93749993e-03
      6.09374978e-03 6.56249980e-03 8.59375019e-03 7.18749966e-03
      7.96874985e-03 1.09374998e-02 1.20312497e-02 1.26562500e-02
      1.09374998e-02 1.17187500e-02 1.31249996e-02 1.26562500e-02
      1.18749999e-02 1.18749999e-02 1.40624996e-02 1.35937501e-02
      1.45312501e-02 1.42187495e-02 1.56250000e-02 9.99999978e-03
      1.18749999e-02 1.29687497e-02 1.35937501e-02 1.24999993e-02
      1.03124995e-02 1.15625001e-02 9.37499944e-03 1.21874996e-02
      1.40624996e-02 1.26562500e-02 1.45312501e-02 1.37499999e-02
      1.48437498e-02 1.40624996e-02 1.54687492e-02 1.89062487e-02
      2.20312495e-02 1.78124998e-02 1.60937496e-02 1.57812499e-02
      1.57812499e-02 1.45312501e-02 1.40624996e-02 1.39062498e-02
      1.24999993e-02 1.21874996e-02 1.45312501e-02 1.39062498e-02
      1.49999997e-02 1.43749993e-02 1.10937497e-02 1.24999993e-02
      9.37499944e-03 1.09374998e-02 9.99999978e-03 1.18749999e-02
      1.14062494e-02 1.15625001e-02 1.23437494e-02 1.73437502e-02
      1.21874996e-02 9.84374993e-03 1.15625001e-02 1.20312497e-02
      1.15625001e-02 8.90624989e-03 1.18749999e-02 1.09374998e-02
      1.10937497e-02 8.43749940e-03 9.37499944e-03 1.03124995e-02
      7.96874985e-03 3.43749998e-03 3.90625000e-03 2.03124993e-03
      1.40624994e-03 1.09375000e-03 4.68749990e-04 4.68749990e-04 0. 0.
      0. 0. 0. 0. 0. 0. 0. 0. 0. 0. 0. 0. 0. 0. 0. 0. 0. 0. 0. 0. 0. 0.
      0. 0. 0. 0. 0. 0. 0. 0. 0. 0. 0. 0. 0. 0. 0. 0. 0. 0. 0. 0. 0. 0.
      0. 0. 0. 0. 0. 0. 0. 0. 0. 0. 0. 0. 0. 0. 0. 0. 0. 0. 0. 0. 0. 0.
      0. 0. 0. 0. 0. 0. 0. 0.</_>
    <_>
      0. 0. 0. 0. 0. 0. 0. 0. 0. 0. 0. 0. 0. 0. 0. 0. 0. 7.81249953e-04
      2.65625003e-03 7.34374998e-03 7.03124981e-03 8.12499970e-03
      5.78125007e-03 9.06249974e-03 7.81250000e-03 1.01562496e-02
      7.65624968e-03 2.57812496e-02 2.92187501e-02 1.39062498e-02
      4.21874970e-03 3.74999992e-03 6.71874965e-03 1.23437494e-02
      2.12500002e-02 1.71875004e-02 6.24999963e-03 5.78125007e-03
      7.18749966e-03 6.09374978e-03 5.15624974e-03 5.78125007e-03
      5.46874991e-03 7.81250000e-03 6.71874965e-03 9.68750007e-03
      7.65624968e-03 7.34374998e-03 1.28124999e-02 2.14062501e-02
      3.07812486e-02 4.93749976e-02 1.05312496e-01 1.77187502e-01
      1.16875000e-01 5.26562482e-02 3.48437503e-02 6.23437501e-02
      2.67187487e-02 8.75000004e-03 7.81250000e-03 0. 7.81249953e-04
      1.09375000e-03 2.18750001e-03 7.81249953e-04 1.56249997e-04
      1.56249997e-04 2.81249988e-03 9.37499979e-04 4.68749990e-04
      3.12499993e-04 1.56249997e-04 6.24999986e-04 6.24999986e-04
      1.56249997e-04 0. 1.56249997e-04 0. 0. 0. 0. 0. 0. 0. 0. 0. 0. 0.
      0. 0. 0. 0. 0. 0. 0. 0. 0. 0. 0. 0. 0. 0. 0. 0. 0. 0. 0. 0. 0. 0.
      0. 0. 0. 0. 0. 0. 0. 0. 0. 0. 0. 0. 0. 0. 0. 0. 0. 0. 0. 0. 0. 0.
      0. 0. 0. 0. 0. 0. 0. 0. 0. 0. 0. 0. 0. 0. 0. 0. 0. 0. 0. 0. 0. 0.
      0. 0. 0. 0. 0. 0. 0. 0. 0. 0. 0. 0. 0. 0. 0. 0. 0. 0. 0. 0. 0. 0.
      0. 0. 0. 0. 0. 0. 0. 0. 0. 0. 0. 0. 0. 0. 0. 0. 0. 0. 0. 0.
      3.12499993e-04 4.68749990e-04 1.40624994e-03 9.37499979e-04
      5.31250006e-03 1.87499996e-03 5.62499976e-03 1.24999997e-03
      4.06249985e-03 1.71874999e-03 8.43749940e-03 4.06249985e-03
      4.21874970e-03 4.53124987e-03 6.40624994e-03 2.34374986e-03
      3.59374983e-03 4.68749972e-03 6.56249980e-03 2.18750001e-03
      4.37500002e-03 3.28124990e-03 4.37500002e-03 1.87499996e-03
      3.12499981e-03 4.21874970e-03 1.24999997e-03 1.24999997e-03
      1.56249991e-03 1.71874999e-03 6.24999986e-04 9.37499979e-04
      1.24999997e-03 1.24999997e-03 1.56249991e-03 1.40624994e-03
      3.12499993e-04 4.68749990e-04 1.09375000e-03 6.24999986e-04
      4.68749990e-04 7.81249953e-04 3.12499993e-04 6.24999986e-04
      3.12499993e-04 9.37499979e-04 4.68749990e-04 3.12499993e-04
      7.81249953e-04 1.71874999e-03 6.24999986e-04 9.37499979e-04
      3.12499993e-04 1.56249997e-04 4.68749990e-04 1.56249997e-04
      1.56249997e-04 0. 4.68749990e-04 3.12499993e-04 7.81249953e-04
      9.37499979e-04 6.24999986e-04 3.12499993e-04 1.56249997e-04
      4.68749990e-04 3.12499993e-04 3.12499993e-04 7.81249953e-04
      7.81249953e-04 3.12499993e-04 6.24999986e-04 7.81249953e-04
      1.09375000e-03 6.24999986e-04 1.56249997e-04 6.24999986e-04
      3.12499993e-04 1.24999997e-03 4.68749990e-04 3.12499993e-04
      4.68749990e-04 9.37499979e-04 4.68749990e-04 6.24999986e-04
      1.56249997e-04 3.12499993e-04 3.12499993e-04 4.68749990e-04
      9.37499979e-04 6.24999986e-04 9.37499979e-04 1.09375000e-03
      3.12499993e-04 9.37499979e-04 7.81249953e-04 7.81249953e-04
      7.81249953e-04 1.09375000e-03 1.87499996e-03 1.71874999e-03
      9.37499979e-04 2.34374986e-03 6.24999986e-04 2.34374986e-03
      2.81249988e-03 2.81249988e-03 2.03124993e-03 3.43749998e-03
      1.56249991e-03 5.31250006e-03 3.59374983e-03 3.74999992e-03
      5.93749993e-03 2.65625003e-03 8.90624989e-03 4.37500002e-03
      6.71874965e-03 7.34374998e-03 1.06250001e-02 7.49999983e-03
      6.24999963e-03 6.09374978e-03 8.59375019e-03 8.59375019e-03
      9.84374993e-03 1.07812500e-02 8.75000004e-03 9.06249974e-03
      1.04687493e-02 7.18749966e-03 7.49999983e-03 9.37499944e-03
      7.81250000e-03 8.28124955e-03 7.03124981e-03 7.96874985e-03
      8.43749940e-03 8.12499970e-03 9.37499944e-03 5.93749993e-03
      5.31250006e-03 8.28124955e-03 4.37500002e-03 7.03124981e-03
      5.62499976e-03 5.15624974e-03 4.37500002e-03 6.40624994e-03
      3.90625000e-03 4.68749972e-03 4.37500002e-03 5.62499976e-03
      3.74999992e-03 4.37500002e-03 3.12499981e-03 2.34374986e-03
      5.31250006e-03 4.99999989e-03 3.74999992e-03 4.21874970e-03
      5.62499976e-03 3.90625000e-03 4.99999989e-03 5.62499976e-03
      3.28124990e-03 5.93749993e-03 4.99999989e-03 4.53124987e-03
      5.62499976e-03 6.09374978e-03 9.84374993e-03 1.07812500e-02
      1.65624991e-02 9.84374993e-03 1.59374997e-02 1.98437497e-02
      1.29687497e-02 1.84374992e-02 1.54687492e-02 1.78124998e-02
      1.42187495e-02 1.87499989e-02 1.34374993e-02 1.75000001e-02
      1.34374993e-02 1.43749993e-02 9.99999978e-03 1.23437494e-02
      8.75000004e-03 4.99999989e-03 5.46874991e-03 5.78125007e-03
      5.31250006e-03 5.15624974e-03 2.96874996e-03 6.09374978e-03
      3.90625000e-03 2.96874996e-03 3.59374983e-03 4.37500002e-03
      6.71874965e-03 4.53124987e-03 8.75000004e-03 5.78125007e-03
      4.21874970e-03 7.18749966e-03 9.84374993e-03 7.49999983e-03
      7.96874985e-03 1.14062494e-02 4.68749972e-03 1.21874996e-02
      6.56249980e-03 5.93749993e-03 9.21874959e-03 2.34374986e-03
      7.49999983e-03 3.28124990e-03 1.24999997e-03 2.18750001e-03
      1.09375000e-03 9.37499979e-04 3.59374983e-03 0. 7.81249953e-04 0.
      0. 3.12499993e-04 0. 0. 0. 0. 0. 0. 0. 0. 0. 0. 0. 0. 0. 0. 0. 0.
      0. 0. 0. 0. 0. 0. 0. 0. 0. 0. 0. 0. 0. 0. 0. 0. 0. 0. 0. 0. 0. 0.
      0. 0. 0. 0. 0. 0. 0. 0. 0. 1.56249997e-04 0. 1.56249997e-04
      7.81249953e-04 6.24999986e-04 1.24999997e-03 1.87499996e-03
      1.56249991e-03 2.34374986e-03 1.40624994e-03 1.71874999e-03
      1.24999997e-03 2.03124993e-03 1.09375000e-03 1.87499996e-03
      1.40624994e-03 2.81249988e-03 2.34374986e-03 2.34374986e-03
      4.53124987e-03 8.59375019e-03 7.49999983e-03 5.93749993e-03
      5.78125007e-03 6.71874965e-03 7.81250000e-03 9.68750007e-03
      9.53125022e-03 9.37499944e-03 8.43749940e-03 9.06249974e-03
      7.03124981e-03 9.53125022e-03 1.09374998e-02 9.84374993e-03
      9.06249974e-03 7.03124981e-03 4.37500002e-03 5.93749993e-03
      6.40624994e-03 6.24999963e-03 4.68749972e-03 4.84375004e-03
      4.84375004e-03 6.09374978e-03 6.24999963e-03 4.68749972e-03
      5.31250006e-03 6.71874965e-03 5.46874991e-03 7.18749966e-03
      7.18749966e-03 9.84374993e-03 8.43749940e-03 1.01562496e-02
      1.28124999e-02 1.60937496e-02 1.76562499e-02 1.56250000e-02
      1.73437502e-02 2.23437492e-02 2.29687486e-02 2.18749996e-02
      1.43749993e-02 1.24999993e-02 1.26562500e-02 1.15625001e-02
      1.68749988e-02 1.71875004e-02 1.99999996e-02 2.18749996e-02
      2.51562502e-02 2.53125001e-02 2.39062496e-02 1.93750001e-02
      2.39062496e-02 2.54687499e-02 1.49999997e-02 1.20312497e-02
      1.09374998e-02 1.10937497e-02 8.59375019e-03 7.18749966e-03
      6.56249980e-03 5.31250006e-03 5.15624974e-03 6.40624994e-03
      9.37499944e-03 7.49999983e-03 1.75000001e-02 3.20312493e-02
      3.32812481e-02 2.93749999e-02 1.84374992e-02 1.39062498e-02
      1.17187500e-02 1.07812500e-02 7.96874985e-03 4.84375004e-03
      4.84375004e-03 2.96874996e-03 1.24999997e-03 9.37499979e-04 0. 0.
      0. 0. 0. 0. 0. 0. 0. 0. 0. 0. 0. 0. 0. 0. 0. 0. 0. 0. 0. 0. 0. 0.
      0. 0. 0. 0. 0. 0. 0. 0. 0. 0. 0. 0. 0. 0. 0. 0. 0. 0. 0. 0. 0. 0.
      0. 0. 0. 0. 0. 0. 0. 0. 0. 0. 0. 0. 0. 0. 0. 0. 0. 0. 0. 0. 0. 0.
      0. 0. 0. 0. 0. 0. 0. 0. 0. 0. 0. 0. 0. 0. 0. 0. 0. 0. 0. 0. 0. 0.
      0. 0. 0. 0. 0. 0. 0. 0. 0. 0. 0. 0. 0. 0. 0. 0. 0. 0. 0. 0. 0. 0.
      0. 0. 0. 0. 0.</_>
    <_>
      1.39062498e-02 1.64062493e-02 2.20312495e-02 2.92187501e-02
      2.01562494e-02 1.56250000e-02 6.09374978e-03 4.21874970e-03
      2.03124993e-03 4.53124987e-03 2.96874996e-03 4.53124987e-03
      2.81249988e-03 3.74999992e-03 5.31250006e-03 6.40624994e-03
      2.18750001e-03 5.78125007e-03 6.09374978e-03 6.40624994e-03
      9.99999978e-03 1.06250001e-02 5.78125007e-03 1.21874996e-02
      1.10937497e-02 2.17187498e-02 4.40624990e-02 3.50000001e-02
      1.42187495e-02 0. 9.37499979e-04 0. 3.12499993e-04 4.68749990e-04
      1.87499996e-03 6.24999986e-04 9.37499979e-04 6.24999986e-04
      4.68749990e-04 3.12499993e-04 1.87499996e-03 1.09375000e-03
      1.32812494e-02 1.96874999e-02 1.01562496e-02 7.81250000e-03
      6.12499975e-02 1.89062487e-02 2.18749996e-02 1.45312501e-02
      7.81250000e-03 1.06250001e-02 1.09375000e-03 3.43749998e-03
      1.71874999e-03 2.81249988e-03 2.49999994e-03 1.24999997e-03
      1.56249991e-03 0. 3.90625000e-03 0. 1.56249991e-03 9.37499979e-04
      1.71874999e-03 7.81249953e-04 4.68749990e-04 3.12499993e-04
      1.40624994e-03 4.68749990e-04 4.68749990e-04 1.09375000e-03
      7.81249953e-04 4.68749990e-04 1.56249997e-04 1.24999997e-03
      1.87499996e-03 0. 1.09375000e-03 6.24999986e-04 3.12499993e-04
      1.87499996e-03 7.81249953e-04 1.71874999e-03 3.12499993e-04
      1.09375000e-03 7.81249953e-04 4.68749990e-04 4.68749990e-04 0.
      2.81249988e-03 0. 0. 1.24999997e-03 3.12499993e-04 4.68749990e-04
      1.24999997e-03 9.37499979e-04 2.18750001e-03 1.87499996e-03
      7.81249953e-04 6.24999986e-04 1.24999997e-03 1.09375000e-03
      2.49999994e-03 1.09375000e-03 2.65625003e-03 1.71874999e-03
      2.34374986e-03 2.34374986e-03 1.09375000e-03 2.49999994e-03
      4.99999989e-03 9.84374993e-03 6.40624994e-03 3.28124990e-03
      4.99999989e-03 4.68749972e-03 6.56249980e-03 9.37499979e-04
      5.78125007e-03 1.71874999e-03 1.56249991e-03 2.81249988e-03
      1.56249991e-03 2.34374986e-03 2.03124993e-03 2.03124993e-03
      2.65625003e-03 1.87499996e-03 1.56249991e-03 4.68749972e-03
      2.18750001e-03 1.87499996e-03 1.71874999e-03 4.37500002e-03
      4.68749972e-03 3.74999992e-03 4.21874970e-03 2.03124993e-03
      3.43749998e-03 3.12499981e-03 2.03124993e-03 4.68749972e-03
      2.96874996e-03 4.21874970e-03 3.74999992e-03 6.09374978e-03
      8.12499970e-03 1.40624994e-03 1.37499999e-02 9.37499979e-04
      1.29687497e-02 5.78125007e-03 6.09374978e-03 6.40624994e-03
      6.09374978e-03 4.68749972e-03 7.65624968e-03 7.18749966e-03
      7.49999983e-03 7.96874985e-03 7.81250000e-03 7.49999983e-03
      6.87499996e-03 9.53125022e-03 6.09374978e-03 7.49999983e-03
      7.34374998e-03 8.75000004e-03 8.75000004e-03 7.49999983e-03
      6.87499996e-03 7.81250000e-03 7.96874985e-03 1.17187500e-02
      1.39062498e-02 1.23437494e-02 1.10937497e-02 1.32812494e-02 0.
      3.12499993e-04 0. 6.24999986e-04 0. 0. 6.24999986e-04 0.
      4.68749990e-04 6.24999986e-04 1.24999997e-03 6.24999986e-04
      6.24999986e-04 4.68749990e-04 1.40624994e-03 3.74999992e-03
      4.99999989e-03 4.06249985e-03 2.49999994e-03 2.81249988e-03
      4.37500002e-03 3.12499981e-03 1.04687493e-02 4.84375004e-03
      1.12499995e-02 1.17187500e-02 6.71874965e-03 1.12499995e-02
      8.90624989e-03 1.12499995e-02 8.75000004e-03 8.43749940e-03
      9.68750007e-03 1.20312497e-02 1.09374998e-02 9.68750007e-03
      1.18749999e-02 1.15625001e-02 8.12499970e-03 1.20312497e-02
      1.04687493e-02 1.07812500e-02 9.84374993e-03 9.84374993e-03
      1.82812493e-02 1.40624996e-02 2.35937499e-02 1.89062487e-02
      1.26562500e-02 1.76562499e-02 2.65624989e-02 1.78124998e-02
      1.56250000e-02 7.49999983e-03 1.79687496e-02 1.90625004e-02
      2.26562489e-02 1.54687492e-02 1.45312501e-02 9.06249974e-03
      1.04687493e-02 7.65624968e-03 4.53124987e-03 7.03124981e-03
      5.15624974e-03 5.78125007e-03 3.43749998e-03 3.59374983e-03
      6.09374978e-03 3.59374983e-03 4.21874970e-03 3.59374983e-03
      4.21874970e-03 3.90625000e-03 5.15624974e-03 5.46874991e-03
      6.09374978e-03 4.99999989e-03 4.99999989e-03 6.09374978e-03
      5.15624974e-03 4.21874970e-03 4.37500002e-03 8.12499970e-03
      6.87499996e-03 5.31250006e-03 6.87499996e-03 5.78125007e-03
      8.28124955e-03 5.15624974e-03 6.71874965e-03 5.15624974e-03
      3.12499981e-03 4.53124987e-03 3.90625000e-03 4.84375004e-03
      5.31250006e-03 7.34374998e-03 4.84375004e-03 4.84375004e-03
      6.87499996e-03 7.03124981e-03 5.15624974e-03 3.59374983e-03
      7.18749966e-03 3.74999992e-03 5.31250006e-03 4.53124987e-03
      4.21874970e-03 2.81249988e-03 2.96874996e-03 2.03124993e-03
      3.12499981e-03 2.18750001e-03 2.49999994e-03 4.53124987e-03
      3.12499981e-03 2.49999994e-03 3.90625000e-03 4.06249985e-03
      1.71874999e-03 4.06249985e-03 2.03124993e-03 4.68749990e-04
      3.59374983e-03 1.71874999e-03 1.56249991e-03 1.56249991e-03
      1.87499996e-03 1.40624994e-03 9.37499979e-04 2.03124993e-03
      1.40624994e-03 1.71874999e-03 1.24999997e-03 1.24999997e-03
      1.56249991e-03 6.24999986e-04 1.24999997e-03 9.37499979e-04
      1.71874999e-03 1.40624994e-03 1.40624994e-03 1.40624994e-03
      1.56249991e-03 1.09375000e-03 2.34374986e-03 1.24999997e-03
      2.03124993e-03 1.87499996e-03 4.68749990e-04 1.40624994e-03
      1.87499996e-03 1.24999997e-03 9.37499979e-04 1.40624994e-03
      1.87499996e-03 1.40624994e-03 7.81249953e-04 1.56249991e-03
      1.71874999e-03 1.87499996e-03 7.81249953e-04 1.24999997e-03
      1.87499996e-03 1.24999997e-03 1.87499996e-03 7.81249953e-04
      1.24999997e-03 1.24999997e-03 1.56249991e-03 2.03124993e-03
      3.12499981e-03 7.81249953e-04 1.09375000e-03 1.24999997e-03
      1.24999997e-03 1.87499996e-03 1.40624994e-03 1.56249991e-03
      2.03124993e-03 1.87499996e-03 1.56249991e-03 2.03124993e-03
      1.24999997e-03 9.37499979e-04 1.71874999e-03 1.40624994e-03
      1.56249991e-03 1.71874999e-03 1.09375000e-03 2.03124993e-03
      1.09375000e-03 9.37499979e-04 1.24999997e-03 1.40624994e-03
      1.71874999e-03 7.81249953e-04 6.24999986e-04 1.09375000e-03
      1.40624994e-03 1.09375000e-03 2.49999994e-03 1.24999997e-03
      9.37499979e-04 6.24999986e-04 2.81249988e-03 1.24999997e-03
      2.49999994e-03 2.49999994e-03 2.81249988e-03 2.03124993e-03
      2.49999994e-03 1.56249991e-03 2.03124993e-03 2.03124993e-03
      3.28124990e-03 2.96874996e-03 1.71874999e-03 2.03124993e-03
      2.96874996e-03 7.81249953e-04 2.81249988e-03 1.24999997e-03
      9.37499979e-04 1.40624994e-03 9.37499979e-04 1.24999997e-03
      9.37499979e-04 6.24999986e-04 1.71874999e-03 3.12499993e-04
      6.24999986e-04 4.68749990e-04 0. 3.12499993e-04 0. 0. 0. 0. 0. 0.
      0. 0. 0. 0. 0. 0. 0. 0. 0. 0. 0. 0. 0. 0. 0. 0. 0. 0. 0. 0. 0. 0.
      0. 0. 0. 0. 0. 0. 0. 0. 0. 0. 0. 0. 0. 0. 0. 0. 0. 0. 0. 0. 0. 0.
      0. 3.12499993e-04 1.56249997e-04 3.12499993e-04 3.12499993e-04
      3.12499993e-04 3.12499993e-04 4.68749990e-04 0. 7.81249953e-04 0.
      3.12499993e-04 3.12499993e-04 1.56249997e-04 1.56249997e-04
      4.68749990e-04 4.68749990e-04 0. 1.56249997e-04 1.09375000e-03
      1.87499996e-03 3.74999992e-03 4.84375004e-03 4.68749972e-03
      6.40624994e-03 4.37500002e-03 5.46874991e-03 7.65624968e-03
      4.99999989e-03 6.40624994e-03 6.87499996e-03 5.31250006e-03
      5.46874991e-03 5.62499976e-03 6.87499996e-03 6.24999963e-03
      4.99999989e-03 7.18749966e-03 8.43749940e-03 7.81250000e-03
      9.06249974e-03 6.71874965e-03 8.12499970e-03 6.24999963e-03
      8.75000004e-03 6.24999963e-03 6.40624994e-03 9.21874959e-03
      8.90624989e-03 1.17187500e-02 6.87499996e-03 1.26562500e-02
      1.21874996e-02 1.53124994e-02 1.60937496e-02 1.75000001e-02
      9.99999978e-03 1.40624996e-02 1.29687497e-02 1.60937496e-02
      1.78124998e-02 1.85937490e-02 1.89062487e-02 1.71875004e-02
      2.03124993e-02 1.98437497e-02 1.85937490e-02 1.57812499e-02
      1.51562495e-02 1.24999993e-02 1.21874996e-02 9.53125022e-03
      1.03124995e-02 8.75000004e-03 7.96874985e-03 6.24999963e-03
      6.24999963e-03 5.46874991e-03 6.87499996e-03 7.34374998e-03
      5.93749993e-03 5.78125007e-03 6.87499996e-03 3.59374983e-03
      5.15624974e-03 5.15624974e-03 5.62499976e-03 3.90625000e-03
      7.65624968e-03 7.18749966e-03 1.09374998e-02 8.75000004e-03
      7.49999983e-03 4.21874970e-03 3.12499981e-03 3.74999992e-03
      4.06249985e-03 2.18750001e-03 2.03124993e-03 3.12499981e-03
      3.43749998e-03 6.56249980e-03 9.37499944e-03 1.59374997e-02
      2.81249993e-02 4.26562503e-02 4.40624990e-02 3.96874994e-02
      3.51562500e-02 2.64062490e-02 5.62499976e-03 4.99999989e-03
      2.49999994e-03 1.56249991e-03 1.09375000e-03 1.40624994e-03
      1.56249991e-03 2.34374986e-03 1.87499996e-03 1.71874999e-03
      9.37499979e-04 1.71874999e-03 2.34374986e-03 1.40624994e-03
      1.87499996e-03 1.71874999e-03 1.87499996e-03 1.40624994e-03
      9.37499979e-04 2.18750001e-03 1.87499996e-03 2.96874996e-03
      1.56249991e-03 1.40624994e-03 4.68749990e-04 1.56249997e-04
      1.56249997e-04 1.56249997e-04 0. 0. 0. 0. 0. 0. 0. 0. 0. 0. 0. 0.
      0. 0. 0. 0. 0. 0. 0. 0. 0. 0. 0. 0. 0. 0. 0. 0. 0. 0. 0. 0. 0. 0.
      0. 0. 0. 0. 0. 0. 0. 0. 0. 0. 0. 0. 0. 0. 0. 0. 0. 0. 0. 0. 0. 0.
      0. 0. 0. 0. 0. 0. 0. 0. 0. 0. 0. 0. 0. 0. 0. 0. 0. 0. 0. 0. 0. 0.
      0. 0. 0. 0. 0. 0. 0. 0. 0. 0. 0.</_>
    <_>
      8.75000004e-03 3.12499993e-04 1.56249991e-03 2.81249988e-03
      3.74999992e-03 2.49999994e-03 2.03124993e-03 3.59374983e-03
      2.81249988e-03 3.28124990e-03 4.06249985e-03 4.53124987e-03
      6.40624994e-03 4.53124987e-03 7.81250000e-03 4.84375004e-03
      6.40624994e-03 5.31250006e-03 1.14062494e-02 1.10937497e-02
      2.20312495e-02 1.85937490e-02 1.46875000e-02 1.76562499e-02
      2.53125001e-02 5.79687469e-02 6.25000000e-02 4.32812497e-02
      1.93750001e-02 1.54687492e-02 1.01562496e-02 4.37500002e-03
      1.23437494e-02 1.06250001e-02 1.53124994e-02 1.03124995e-02
      8.12499970e-03 6.71874965e-03 1.23437494e-02 7.81250000e-03
      9.06249974e-03 1.43749993e-02 1.31249996e-02 6.24999963e-03
      2.20312495e-02 1.51562495e-02 1.15625001e-02 2.81249988e-03
      2.34374986e-03 1.71874999e-03 1.87499996e-03 4.68749990e-04
      3.12499993e-04 9.37499979e-04 1.24999997e-03 0. 1.56249997e-04 0.
      3.12499993e-04 0. 2.49999994e-03 0. 0. 3.12499993e-04
      7.81249953e-04 0. 0. 0. 0. 3.12499993e-04 3.12499993e-04 0. 0.
      3.12499993e-04 0. 6.24999986e-04 0. 0. 0. 0. 3.12499993e-04 0. 0.
      0. 0. 0. 0. 0. 0. 0. 1.24999997e-03 0. 0. 0. 0. 0. 0. 0. 0. 0.
      3.12499993e-04 0. 0. 0. 0. 6.24999986e-04 0. 0. 0. 0.
      1.40624994e-03 0. 0. 3.12499993e-04 6.24999986e-04 0. 0. 0. 0. 0.
      1.87499996e-03 0. 3.12499993e-04 1.56249997e-04 0. 7.81249953e-04
      4.68749990e-04 0. 1.56249991e-03 6.24999986e-04 1.09375000e-03
      1.09375000e-03 2.03124993e-03 1.87499996e-03 3.90625000e-03
      6.09374978e-03 4.99999989e-03 9.99999978e-03 1.18749999e-02
      3.90625000e-03 1.04687493e-02 1.07812500e-02 8.75000004e-03
      1.24999993e-02 5.93749993e-03 1.26562500e-02 6.71874965e-03
      6.09374978e-03 8.28124955e-03 9.37499979e-04 1.39062498e-02
      4.68749990e-04 1.23437494e-02 5.46874991e-03 7.81250000e-03
      9.84374993e-03 1.31249996e-02 5.78125007e-03 8.43749940e-03
      5.15624974e-03 5.78125007e-03 4.53124987e-03 7.81250000e-03
      6.87499996e-03 6.09374978e-03 7.49999983e-03 5.93749993e-03
      1.04687493e-02 7.18749966e-03 1.42187495e-02 1.04687493e-02
      1.06250001e-02 1.17187500e-02 1.17187500e-02 9.21874959e-03
      9.99999978e-03 1.26562500e-02 9.53125022e-03 9.84374993e-03
      3.12499981e-03 0. 7.81249953e-04 0. 2.49999994e-03 0.
      4.06249985e-03 9.37499979e-04 3.90625000e-03 1.09375000e-03
      2.81249988e-03 2.81249988e-03 4.68749972e-03 1.24999997e-03
      5.78125007e-03 1.24999997e-03 4.84375004e-03 2.96874996e-03
      4.37500002e-03 7.18749966e-03 4.99999989e-03 5.31250006e-03
      5.93749993e-03 3.90625000e-03 5.93749993e-03 6.71874965e-03
      6.09374978e-03 5.78125007e-03 6.24999963e-03 9.06249974e-03
      6.09374978e-03 6.24999963e-03 5.62499976e-03 6.24999963e-03
      7.34374998e-03 7.18749966e-03 7.34374998e-03 5.46874991e-03
      8.12499970e-03 7.03124981e-03 9.84374993e-03 7.34374998e-03
      6.24999963e-03 6.87499996e-03 7.81250000e-03 8.28124955e-03
      5.46874991e-03 9.53125022e-03 7.18749966e-03 9.68750007e-03
      1.31249996e-02 1.39062498e-02 1.12499995e-02 1.24999993e-02
      1.53124994e-02 1.53124994e-02 1.39062498e-02 9.68750007e-03
      1.15625001e-02 1.21874996e-02 1.24999993e-02 8.12499970e-03
      7.96874985e-03 1.21874996e-02 1.06250001e-02 9.84374993e-03
      8.59375019e-03 1.54687492e-02 1.20312497e-02 1.28124999e-02
      1.65624991e-02 1.18749999e-02 9.68750007e-03 1.12499995e-02
      1.14062494e-02 1.10937497e-02 9.37499944e-03 1.21874996e-02
      1.34374993e-02 1.18749999e-02 1.09374998e-02 9.37499944e-03
      1.09374998e-02 1.23437494e-02 1.17187500e-02 1.53124994e-02
      1.07812500e-02 1.06250001e-02 1.09374998e-02 8.90624989e-03
      9.53125022e-03 7.96874985e-03 7.49999983e-03 7.65624968e-03
      1.01562496e-02 5.78125007e-03 6.24999963e-03 5.93749993e-03
      8.75000004e-03 8.75000004e-03 1.12499995e-02 1.34374993e-02
      9.37499944e-03 1.45312501e-02 1.28124999e-02 9.84374993e-03
      7.81250000e-03 8.43749940e-03 7.03124981e-03 5.93749993e-03
      7.65624968e-03 4.99999989e-03 4.99999989e-03 4.84375004e-03
      3.12499981e-03 5.15624974e-03 2.81249988e-03 3.74999992e-03
      4.21874970e-03 3.90625000e-03 4.37500002e-03 4.21874970e-03
      6.24999963e-03 3.90625000e-03 1.24999997e-03 4.84375004e-03
      3.90625000e-03 3.28124990e-03 3.12499981e-03 1.24999997e-03
      1.40624994e-03 1.71874999e-03 1.40624994e-03 2.34374986e-03
      1.87499996e-03 7.81249953e-04 1.09375000e-03 4.68749990e-04
      4.68749990e-04 4.68749990e-04 0. 0. 0. 3.12499993e-04 0.
      1.56249997e-04 0. 3.12499993e-04 0. 0. 0. 1.56249997e-04 0.
      1.56249997e-04 1.56249997e-04 0. 0. 0. 0. 1.56249997e-04 0.
      1.56249997e-04 0. 0. 0. 0. 0. 0. 0. 0. 0. 0. 0. 0. 0. 0. 0. 0. 0.
      0. 0. 0. 0. 0. 0. 0. 0. 0. 0. 0. 0. 0. 0. 0. 0. 0. 0. 0. 0. 0. 0.
      0. 0. 0. 0. 0. 0. 0. 0. 0. 0. 0. 0. 0. 0. 0. 0. 0. 0. 0. 0. 0. 0.
      0. 0. 0. 0. 0. 0. 0. 0. 0. 0. 0. 0. 0. 0. 0. 0. 0. 0. 0. 0. 0. 0.
      0. 0. 0. 0. 0. 0. 0. 0. 0. 0. 0. 0. 0. 0. 0. 0. 0. 0. 0. 0. 0. 0.
      0. 0. 0. 0. 0. 0. 0. 0. 0. 0. 0. 0. 0. 0. 0. 0. 0. 0. 0. 0. 0. 0.
      0. 0. 0. 0. 0. 0. 0. 0. 0. 0. 0. 1.56249997e-04 0. 3.12499993e-04
      3.12499993e-04 0. 3.12499993e-04 1.56249997e-04 4.68749990e-04
      4.68749990e-04 3.12499993e-04 1.56249997e-04 4.68749990e-04
      3.12499993e-04 9.37499979e-04 3.12499993e-04 7.81249953e-04
      9.37499979e-04 2.03124993e-03 1.09375000e-03 2.49999994e-03
      2.18750001e-03 3.12499981e-03 3.90625000e-03 2.18750001e-03
      3.59374983e-03 3.59374983e-03 5.62499976e-03 7.81250000e-03
      7.49999983e-03 1.20312497e-02 1.39062498e-02 1.03124995e-02
      1.20312497e-02 9.53125022e-03 9.53125022e-03 9.06249974e-03
      1.48437498e-02 1.64062493e-02 1.70312505e-02 1.49999997e-02
      1.87499989e-02 1.90625004e-02 1.60937496e-02 1.82812493e-02
      1.65624991e-02 1.34374993e-02 1.28124999e-02 1.12499995e-02
      9.53125022e-03 1.12499995e-02 9.06249974e-03 1.10937497e-02
      9.21874959e-03 1.26562500e-02 1.14062494e-02 1.45312501e-02
      9.53125022e-03 1.29687497e-02 1.59374997e-02 1.64062493e-02
      1.75000001e-02 1.64062493e-02 1.53124994e-02 1.51562495e-02
      1.56250000e-02 1.62499994e-02 1.81249995e-02 1.79687496e-02
      1.76562499e-02 2.23437492e-02 1.89062487e-02 1.92187503e-02
      1.71875004e-02 1.32812494e-02 1.82812493e-02 1.54687492e-02
      2.07812488e-02 2.34375000e-02 2.37499997e-02 1.73437502e-02
      1.03124995e-02 1.04687493e-02 7.03124981e-03 6.40624994e-03
      8.59375019e-03 7.65624968e-03 7.34374998e-03 6.71874965e-03
      6.87499996e-03 4.99999989e-03 4.84375004e-03 6.24999963e-03
      4.06249985e-03 3.74999992e-03 3.74999992e-03 4.53124987e-03
      3.28124990e-03 5.15624974e-03 3.90625000e-03 3.59374983e-03
      2.96874996e-03 3.28124990e-03 2.96874996e-03 4.99999989e-03
      3.28124990e-03 2.65625003e-03 1.71874999e-03 2.18750001e-03
      1.71874999e-03 2.49999994e-03 2.34374986e-03 4.53124987e-03
      7.49999983e-03 5.78125007e-03 5.62499976e-03 3.59374983e-03
      1.71874999e-03 0. 0. 0. 0. 0. 0. 0. 0. 0. 0. 0. 0. 0. 0. 0. 0. 0.
      0. 0. 0. 0. 0. 0. 0. 0. 0. 0. 0. 0. 0. 0. 0. 0. 0. 0. 0. 0. 0. 0.
      0. 0. 0. 0. 0. 0. 0. 0. 0. 0. 0. 0. 0. 0. 0. 0. 0. 0. 0. 0. 0. 0.
      0. 0. 0. 0. 0. 0. 0. 0. 0. 0. 0. 0. 0. 0. 0. 0. 0. 0. 0. 0. 0. 0.
      0. 0. 0. 0. 0. 0. 0. 0. 0. 0. 0. 0. 0. 0.</_>
    <_>
      3.12499993e-04 0. 0. 2.81249988e-03 1.09375000e-03 0.
      3.12499993e-04 1.71874999e-03 6.24999986e-04 1.87499996e-03
      6.24999963e-03 6.24999963e-03 3.90625000e-03 2.18750001e-03
      1.85937490e-02 2.32812501e-02 2.04687491e-02 1.23437494e-02
      1.81249995e-02 1.42187495e-02 1.67187490e-02 1.12499995e-02
      7.49999983e-03 8.43749940e-03 9.68750007e-03 2.96874996e-03
      6.71874965e-03 2.18750001e-03 3.90625000e-03 4.68749990e-04
      7.18749966e-03 3.12499993e-04 2.03124993e-03 1.40624994e-03
      6.09374978e-03 2.65625003e-03 4.68749990e-04 2.96874996e-03
      9.37499979e-04 1.09375000e-03 1.71874999e-03 1.24999997e-03
      1.09375000e-03 1.56249991e-03 1.56249997e-04 4.21874970e-03
      4.68749990e-04 1.56249997e-04 1.71874999e-03 1.09375000e-03
      1.24999997e-03 1.24999997e-03 4.68749990e-04 2.18750001e-03
      1.09375000e-03 2.49999994e-03 1.09375000e-03 1.24999997e-03
      1.09375000e-03 6.24999986e-04 6.40624994e-03 1.56249997e-04
      1.24999997e-03 1.09375000e-03 9.37499979e-04 1.87499996e-03
      3.28124990e-03 2.34374986e-03 4.53124987e-03 2.96874996e-03
      7.65624968e-03 1.12499995e-02 2.85937488e-02 4.10937481e-02
      1.95312500e-02 1.82812493e-02 5.35937473e-02 1.10781245e-01
      9.01562497e-02 9.51562449e-02 1.09062500e-01 9.17187482e-02
      2.37499997e-02 1.15625001e-02 3.90625000e-03 2.81249988e-03
      6.24999986e-04 0. 0. 0. 0. 0. 0. 0. 0. 0. 0. 0. 0. 0. 0. 0. 0. 0.
      0. 0. 0. 0. 0. 0. 0. 0. 0. 0. 0. 0. 0. 0. 0. 0. 0. 0. 0. 0. 0. 0.
      0. 0. 0. 0. 0. 0. 0. 0. 0. 0. 0. 0. 0. 0. 0. 0. 0. 0. 0. 0. 0. 0.
      0. 0. 0. 0. 0. 0. 0. 0. 0. 0. 0. 0. 0. 0. 0. 0. 0. 0. 0. 0. 0. 0.
      0. 0. 0. 0. 0. 0. 0. 0. 0. 0. 0. 0. 0. 0. 0. 0. 0. 1.56249997e-04
      1.56249997e-04 1.09375000e-03 9.37499979e-04 1.56249997e-04
      1.09375000e-03 3.12499993e-04 1.71874999e-03 1.56249997e-04
      2.65625003e-03 1.24999997e-03 7.49999983e-03 3.74999992e-03
      4.37500002e-03 7.81250000e-03 3.43749998e-03 1.59374997e-02
      5.62499976e-03 1.65624991e-02 1.48437498e-02 1.28124999e-02
      1.59374997e-02 1.18749999e-02 1.40624996e-02 6.40624994e-03
      7.18749966e-03 3.43749998e-03 4.99999989e-03 2.03124993e-03
      2.49999994e-03 3.90625000e-03 4.53124987e-03 2.34374986e-03
      5.93749993e-03 4.37500002e-03 3.59374983e-03 6.87499996e-03
      5.15624974e-03 1.87499996e-03 3.59374983e-03 5.46874991e-03
      4.53124987e-03 6.24999963e-03 4.21874970e-03 3.74999992e-03
      2.81249988e-03 4.68749972e-03 4.84375004e-03 4.53124987e-03
      4.06249985e-03 4.53124987e-03 3.28124990e-03 4.06249985e-03
      3.74999992e-03 2.34374986e-03 2.18750001e-03 2.49999994e-03
      2.96874996e-03 3.59374983e-03 2.03124993e-03 1.87499996e-03
      1.40624994e-03 2.49999994e-03 1.56249991e-03 3.59374983e-03
      1.71874999e-03 2.03124993e-03 6.24999986e-04 6.24999986e-04
      4.68749990e-04 2.96874996e-03 2.65625003e-03 7.81249953e-04
      9.37499979e-04 4.68749990e-04 6.24999986e-04 3.12499993e-04
      2.49999994e-03 4.68749990e-04 3.12499993e-04 2.65625003e-03
      4.68749990e-04 7.81249953e-04 3.12499993e-04 7.81249953e-04
      9.37499979e-04 9.37499979e-04 5.15624974e-03 1.56249997e-04
      2.96874996e-03 2.81249988e-03 9.99999978e-03 1.28124999e-02
      7.49999983e-03 1.09375000e-03 4.68749972e-03 1.23437494e-02
      1.09375000e-03 3.28124990e-03 7.03124981e-03 1.56249991e-03
      5.46874991e-03 5.31250006e-03 3.12499981e-03 4.21874970e-03
      5.31250006e-03 4.68749972e-03 1.40624994e-03 3.43749998e-03
      4.99999989e-03 3.43749998e-03 5.15624974e-03 4.99999989e-03
      1.56249991e-03 3.12499981e-03 5.93749993e-03 1.24999997e-03
      9.37499979e-04 2.96874996e-03 1.40624994e-03 9.37499979e-04
      3.59374983e-03 1.56249991e-03 1.56249991e-03 6.24999986e-04
      1.56249997e-04 9.37499979e-04 1.40624994e-03 1.09375000e-03
      1.09375000e-03 3.12499981e-03 3.12499981e-03 3.12499993e-04
      9.37499979e-04 1.56249991e-03 3.12499981e-03 1.09375000e-03
      8.12499970e-03 1.87499996e-03 1.71874999e-03 1.24999997e-03
      6.24999986e-04 1.71874999e-03 2.03124993e-03 1.24999997e-03
      1.56249991e-03 6.24999986e-04 6.24999986e-04 1.09375000e-03
      1.40624994e-03 1.56249991e-03 6.24999986e-04 6.24999986e-04
      7.81249953e-04 1.71874999e-03 1.09375000e-03 1.09375000e-03
      7.81249953e-04 2.49999994e-03 1.40624994e-03 2.34374986e-03
      1.87499996e-03 1.56249991e-03 3.12499993e-04 4.68749990e-04
      1.24999997e-03 6.24999986e-04 1.24999997e-03 9.37499979e-04
      1.56249991e-03 1.56249991e-03 2.49999994e-03 4.06249985e-03
      2.03124993e-03 1.09375000e-03 2.18750001e-03 1.56249991e-03
      2.49999994e-03 3.59374983e-03 2.18750001e-03 9.37499979e-04
      2.81249988e-03 3.90625000e-03 3.74999992e-03 3.12499981e-03
      3.59374983e-03 3.12499981e-03 7.18749966e-03 2.65625003e-03
      7.81250000e-03 5.15624974e-03 1.15625001e-02 9.37499944e-03
      1.32812494e-02 1.15625001e-02 1.01562496e-02 1.90625004e-02
      1.04687493e-02 6.09374978e-03 2.26562489e-02 1.12499995e-02
      1.48437498e-02 1.34374993e-02 1.46875000e-02 2.01562494e-02
      2.20312495e-02 1.84374992e-02 3.20312493e-02 7.34374998e-03
      1.71875004e-02 2.28124987e-02 1.20312497e-02 1.12499995e-02
      1.89062487e-02 3.59374983e-03 1.14062494e-02 7.65624968e-03
      2.96874996e-03 5.93749993e-03 2.49999994e-03 6.24999986e-04
      2.65625003e-03 3.12499993e-04 6.24999986e-04 1.24999997e-03 0.
      1.56249997e-04 9.37499979e-04 0. 0. 0. 0. 3.12499993e-04
      1.56249997e-04 0. 4.68749990e-04 0. 0. 0. 0. 0. 0. 0. 0. 0. 0. 0.
      0. 0. 0. 0. 0. 0. 0. 0. 0. 0. 0. 0. 0. 0. 0. 0. 0. 0. 0. 0. 0. 0.
      0. 0. 0. 0. 0. 0. 0. 0. 0. 0. 0. 0. 0. 0. 0. 0. 0. 0. 0. 0. 0. 0.
      0. 0. 0. 0. 0. 0. 0. 0. 0. 0. 0. 0. 0. 0. 0. 0. 0. 0. 0. 0. 0. 0.
      0. 0. 0. 0. 0. 0. 0. 0. 3.12499993e-04 9.37499979e-04
      1.56249991e-03 2.18750001e-03 9.37499979e-04 1.56249997e-04
      9.37499979e-04 4.68749990e-04 1.56249991e-03 2.96874996e-03
      3.74999992e-03 3.28124990e-03 4.99999989e-03 5.15624974e-03
      7.96874985e-03 1.39062498e-02 1.48437498e-02 2.26562489e-02
      3.98437493e-02 6.10937476e-02 8.79687443e-02 9.15624946e-02
      5.43750003e-02 2.74999999e-02 2.04687491e-02 1.62499994e-02
      1.59374997e-02 1.17187500e-02 1.12499995e-02 1.01562496e-02
      7.18749966e-03 6.24999963e-03 7.96874985e-03 5.62499976e-03
      4.21874970e-03 4.99999989e-03 4.68749972e-03 4.99999989e-03
      4.37500002e-03 5.15624974e-03 4.53124987e-03 5.15624974e-03
      4.84375004e-03 7.03124981e-03 4.06249985e-03 5.31250006e-03
      4.37500002e-03 2.96874996e-03 2.81249988e-03 2.34374986e-03
      4.06249985e-03 2.34374986e-03 2.49999994e-03 1.71874999e-03
      2.96874996e-03 2.81249988e-03 3.59374983e-03 8.75000004e-03
      4.99999989e-03 4.53124987e-03 1.10937497e-02 1.01562496e-02
      1.17187500e-02 1.40624996e-02 1.12499995e-02 1.54687492e-02
      1.34374993e-02 1.78124998e-02 1.65624991e-02 1.98437497e-02
      1.46875000e-02 1.68749988e-02 2.48437487e-02 1.65624991e-02
      2.29687486e-02 1.76562499e-02 1.62499994e-02 1.18749999e-02
      1.39062498e-02 1.56250000e-02 6.87499996e-03 6.56249980e-03 0. 0.
      0. 0. 0. 0. 0. 0. 0. 0. 0. 0. 0. 0. 0. 0. 0. 0. 0. 0. 0. 0. 0. 0.
      0. 0. 0. 0. 0. 0. 0. 0. 0. 0. 0. 0. 0. 0. 0. 0. 0. 0. 0. 0. 0. 0.
      0. 0. 0. 0. 0. 0. 0. 0. 0. 0. 0. 0. 0. 0. 0. 0. 0. 0. 0. 0. 0. 0.
      0. 0. 0. 0. 0. 0. 0. 0. 0. 0. 0. 0. 0. 0. 0. 0. 0. 0. 0. 0. 0. 0.
      0. 0. 0. 0. 0. 0. 0. 0. 0. 0. 0. 0. 0.</_>
    <_>
      1.09375000e-03 7.96874985e-03 1.65624991e-02 1.28124999e-02
      3.57812494e-02 8.40625018e-02 1.36250004e-01 1.59843743e-01
      2.02500001e-01 1.45156249e-01 1.21406250e-01 4.73437496e-02
      1.29687497e-02 6.09374978e-03 9.37499979e-04 1.09375000e-03
      7.81249953e-04 0. 0. 0. 0. 0. 0. 0. 0. 0. 0. 0. 0. 0. 0. 0. 0. 0.
      0. 0. 0. 0. 0. 0. 0. 0. 0. 0. 0. 0. 0. 0. 0. 0. 0. 0. 0. 0. 0. 0.
      0. 0. 0. 0. 0. 0. 0. 0. 0. 0. 0. 0. 0. 0. 0. 0. 0. 0. 0. 0. 0. 0.
      0. 0. 0. 0. 0. 0. 0. 0. 0. 0. 0. 0. 0. 0. 0. 0. 0. 0. 0. 0. 0. 0.
      0. 0. 0. 0. 0. 0. 0. 0. 0. 0. 0. 0. 0. 0. 0. 0. 0. 0. 0. 0. 0. 0.
      0. 0. 0. 0. 0. 0. 0. 0. 0. 0. 0. 0. 0. 0. 0. 0. 0. 0. 0. 0. 0. 0.
      0. 0. 0. 0. 0. 0. 0. 0. 0. 0. 0. 0. 0. 0. 0. 0. 0. 0. 0. 0. 0. 0.
      0. 0. 0. 0. 0. 0. 0. 0. 0. 0. 4.68749990e-04 7.81249953e-04
      1.56249997e-04 5.93749993e-03 0. 0. 0. 0. 0. 0. 0. 0. 0. 0. 0. 0.
      0. 0. 0. 0. 0. 0. 0. 0. 0. 0. 0. 0. 0. 0. 0. 0. 0. 0. 0. 0. 0. 0.
      0. 0. 0. 0. 0. 0. 0. 0. 0. 0. 4.37500002e-03 0. 1.56249997e-04 0.
      0. 0. 0. 4.68749972e-03 1.56249997e-04 0. 3.12499993e-04
      3.12499993e-04 0. 1.56249997e-04 9.37499944e-03 1.56249991e-03
      6.24999986e-04 6.24999986e-04 1.24999997e-03 1.71874999e-03
      1.40624994e-03 1.24999997e-03 1.40624994e-03 2.03124993e-03
      1.09375000e-03 7.34374998e-03 2.34374986e-03 3.12499981e-03
      1.56249991e-03 6.40624994e-03 2.34374986e-03 1.71874999e-03
      2.34374986e-03 6.09374978e-03 2.81249988e-03 3.43749998e-03
      1.87499996e-03 3.12499981e-03 1.71874999e-03 1.40624994e-03
      2.49999994e-03 3.90625000e-03 7.34374998e-03 4.99999989e-03
      3.12499981e-03 7.49999983e-03 9.21874959e-03 1.01562496e-02
      2.65625003e-03 7.96874985e-03 4.06249985e-03 8.43749940e-03
      9.21874959e-03 6.56249980e-03 5.31250006e-03 9.84374993e-03
      1.37499999e-02 6.56249980e-03 8.43749940e-03 3.28124990e-03
      2.18750001e-03 8.12499970e-03 5.31250006e-03 1.64062493e-02
      5.15624974e-03 2.96874996e-03 1.40624996e-02 9.53125022e-03
      4.84375004e-03 1.09374998e-02 5.93749993e-03 5.62499976e-03
      3.90625000e-03 1.26562500e-02 1.42187495e-02 1.01562496e-02
      9.84374993e-03 5.62499976e-03 1.45312501e-02 4.99999989e-03
      1.12499995e-02 3.59374983e-03 4.21874970e-03 8.28124955e-03
      5.93749993e-03 1.17187500e-02 3.74999992e-03 5.93749993e-03
      8.75000004e-03 4.53124987e-03 9.68750007e-03 5.46874991e-03
      5.78125007e-03 1.17187500e-02 5.46874991e-03 4.21874970e-03
      5.15624974e-03 2.65625003e-03 3.43749998e-03 3.12499981e-03
      1.32812494e-02 8.28124955e-03 8.90624989e-03 3.74999992e-03
      5.46874991e-03 3.59374983e-03 3.43749998e-03 7.34374998e-03
      3.12499981e-03 8.59375019e-03 1.35937501e-02 5.62499976e-03
      7.34374998e-03 3.90625000e-03 5.46874991e-03 9.84374993e-03
      1.48437498e-02 8.90624989e-03 4.06249985e-03 4.21874970e-03
      4.37500002e-03 1.35937501e-02 4.68749972e-03 8.75000004e-03
      8.75000004e-03 4.68749972e-03 3.74999992e-03 4.21874970e-03
      3.90625000e-03 2.18750001e-03 6.56249980e-03 9.21874959e-03
      7.81250000e-03 3.43749998e-03 7.65624968e-03 5.15624974e-03
      7.18749966e-03 4.06249985e-03 3.90625000e-03 4.21874970e-03
      9.99999978e-03 1.21874996e-02 1.12499995e-02 5.46874991e-03
      7.18749966e-03 1.04687493e-02 3.90625000e-03 5.78125007e-03
      5.15624974e-03 1.29687497e-02 1.04687493e-02 1.20312497e-02
      5.78125007e-03 4.99999989e-03 9.68750007e-03 5.46874991e-03
      1.01562496e-02 8.28124955e-03 4.68749972e-03 7.34374998e-03
      4.53124987e-03 8.12499970e-03 5.93749993e-03 9.21874959e-03
      3.43749998e-03 2.34374986e-03 2.49999994e-03 6.71874965e-03
      1.87499996e-03 2.18750001e-03 6.56249980e-03 6.09374978e-03
      2.49999994e-03 5.31250006e-03 9.37499979e-04 0. 0. 0. 0. 0. 0. 0.
      0. 0. 0. 0. 0. 0. 0. 0. 0. 0. 0. 0. 0. 0. 0. 0. 0. 0. 0. 0. 0. 0.
      0. 0. 0. 0. 0. 0. 0. 0. 0. 0. 0. 0. 0. 0. 0. 0. 0. 0. 0. 0. 0. 0.
      0. 0. 0. 0. 0. 0. 0. 0. 0. 0. 0. 0. 0. 0. 0. 0. 0. 0. 0. 0. 0. 0.
      0. 0. 0. 0. 0. 0. 0. 0. 0. 0. 0. 0. 0. 0. 0. 0. 0. 0. 0. 0. 0. 0.
      0. 0. 0. 0. 0. 0. 0. 0. 0. 0. 0. 0. 0. 0. 0. 0. 0. 0. 0. 0. 0. 0.
      0. 0. 0. 0. 0. 0. 0. 0. 0. 0. 0. 0. 0. 0. 0. 0. 0. 0. 0. 0. 0. 0.
      0. 0. 0. 0. 0. 0. 0. 0. 0. 0. 0. 0. 0. 0. 0. 3.12499993e-04 0.
      7.81249953e-04 3.12499993e-04 6.24999986e-04 6.24999986e-04
      6.24999986e-04 2.18750001e-03 2.49999994e-03 2.65625003e-03
      2.65625003e-03 3.59374983e-03 3.43749998e-03 4.53124987e-03
      3.59374983e-03 1.71874999e-03 1.56249991e-03 1.40624994e-03
      3.12499981e-03 4.84375004e-03 3.74999992e-03 4.21874970e-03
      4.21874970e-03 4.53124987e-03 4.99999989e-03 4.21874970e-03
      3.90625000e-03 3.43749998e-03 4.06249985e-03 6.56249980e-03
      5.15624974e-03 4.37500002e-03 5.62499976e-03 8.28124955e-03
      6.09374978e-03 4.99999989e-03 5.93749993e-03 7.65624968e-03
      5.31250006e-03 5.78125007e-03 7.18749966e-03 9.53125022e-03
      9.68750007e-03 1.84374992e-02 1.15625001e-02 1.68749988e-02
      1.35937501e-02 1.42187495e-02 1.67187490e-02 1.89062487e-02
      1.84374992e-02 2.20312495e-02 1.57812499e-02 2.67187487e-02
      1.60937496e-02 2.95312498e-02 1.99999996e-02 2.34375000e-02
      3.06249987e-02 1.93750001e-02 2.14062501e-02 1.84374992e-02
      1.20312497e-02 1.12499995e-02 2.06249990e-02 1.46875000e-02
      1.89062487e-02 5.18749990e-02 3.81250009e-02 2.04687491e-02
      2.39062496e-02 1.62499994e-02 2.14062501e-02 2.04687491e-02
      2.18749996e-02 1.87499989e-02 1.26562500e-02 2.32812501e-02
      1.29687497e-02 8.12499970e-03 1.96874999e-02 1.96874999e-02
      1.42187495e-02 1.37499999e-02 5.15624974e-03 1.28124999e-02
      4.21874970e-03 0. 0. 0. 0. 0. 0. 0. 0. 0. 0. 0. 0. 0. 0. 0. 0. 0.
      0. 0. 0. 0. 0. 0. 0. 0. 0. 0. 0. 0. 0. 0. 0. 0. 0. 0. 0. 0. 0. 0.
      0. 0. 0. 0. 0. 0. 0. 0. 0. 0. 0. 0. 0. 0.</_>
    <_>
      0. 0. 4.06249985e-03 3.81250009e-02 8.39062482e-02 1.29843742e-01
      1.14999995e-01 5.29687479e-02 3.56249996e-02 2.67187487e-02
      3.01562492e-02 3.28124985e-02 2.73437500e-02 3.85937504e-02
      2.87499987e-02 2.90625002e-02 2.43749991e-02 2.35937499e-02
      2.07812488e-02 1.54687492e-02 1.95312500e-02 1.48437498e-02
      1.60937496e-02 1.49999997e-02 1.57812499e-02 1.84374992e-02
      3.34374979e-02 3.64062488e-02 1.34374993e-02 3.74999992e-03
      2.03124993e-03 2.18750001e-03 3.59374983e-03 3.12499981e-03
      2.96874996e-03 3.59374983e-03 3.12499981e-03 4.37500002e-03
      2.65625003e-03 3.43749998e-03 9.37499979e-04 3.28124990e-03
      3.12499981e-03 6.09374978e-03 2.96874996e-03 4.68749990e-04
      5.15624974e-03 1.09375000e-03 1.71874999e-03 1.56249997e-04 0. 0.
      0. 0. 0. 0. 0. 0. 0. 0. 0. 0. 0. 0. 0. 0. 0. 0. 0. 0. 0. 0. 0. 0.
      0. 0. 0. 0. 0. 0. 0. 0. 0. 0. 0. 0. 0. 0. 0. 0. 0. 0. 0. 0. 0. 0.
      0. 0. 0. 0. 0. 0. 0. 0. 0. 0. 0. 0. 0. 0. 0. 0. 0. 0. 0. 0. 0. 0.
      0. 0. 0. 0. 0. 0. 0. 0. 0. 0. 0. 0. 0. 0. 0. 0. 0. 0. 0. 0. 0. 0.
      0. 0. 0. 0. 0. 0. 0. 0. 0. 0. 0. 0. 0. 0. 0. 0. 0. 0. 0. 0. 0. 0.
      0. 0. 0. 0. 0. 0. 0. 0. 0. 0. 0. 0. 0. 0. 0. 0. 0. 0. 0. 0. 0. 0.
      0. 0. 0. 0. 0. 0. 0. 0. 0. 0. 0. 0. 0. 0. 0. 0. 0. 0. 0. 0. 0. 0.
      0. 0. 0. 0. 0. 7.81249953e-04 4.68749990e-04 3.74999992e-03
      3.28124990e-03 4.53124987e-03 4.68749972e-03 4.53124987e-03
      2.81249988e-03 2.81249988e-03 5.31250006e-03 4.21874970e-03
      2.03124993e-03 3.28124990e-03 3.12499981e-03 3.12499981e-03
      1.71874999e-03 1.87499996e-03 9.37499979e-04 1.56249991e-03
      1.56249991e-03 2.03124993e-03 1.24999997e-03 1.71874999e-03
      1.24999997e-03 9.37499979e-04 1.40624994e-03 1.40624994e-03
      2.49999994e-03 1.71874999e-03 1.71874999e-03 2.49999994e-03
      2.03124993e-03 2.81249988e-03 3.59374983e-03 1.56249991e-03
      2.96874996e-03 2.65625003e-03 3.59374983e-03 1.87499996e-03
      3.12499981e-03 5.62499976e-03 4.53124987e-03 4.99999989e-03
      4.99999989e-03 7.49999983e-03 4.99999989e-03 8.28124955e-03
      5.62499976e-03 9.53125022e-03 6.24999963e-03 4.06249985e-03
      6.71874965e-03 5.78125007e-03 6.56249980e-03 7.34374998e-03
      4.53124987e-03 7.65624968e-03 4.06249985e-03 5.31250006e-03
      4.68749972e-03 4.99999989e-03 5.46874991e-03 4.99999989e-03
      5.31250006e-03 3.43749998e-03 4.21874970e-03 5.15624974e-03
      3.59374983e-03 4.06249985e-03 4.53124987e-03 4.53124987e-03
      4.06249985e-03 2.96874996e-03 4.06249985e-03 3.74999992e-03
      3.12499981e-03 3.43749998e-03 5.31250006e-03 4.68749972e-03
      4.53124987e-03 3.28124990e-03 3.74999992e-03 4.06249985e-03
      5.31250006e-03 3.43749998e-03 4.84375004e-03 3.74999992e-03
      4.53124987e-03 3.90625000e-03 4.21874970e-03 2.18750001e-03
      3.59374983e-03 3.43749998e-03 4.68749972e-03 3.59374983e-03
